{"learner":{"attributes":{"scikit_learn":"{\"_estimator_type\": \"classifier\"}"},"feature_names":[],"feature_types":[],"gradient_booster":{"model":{"cats":{"enc":[],"feature_segments":[],"sorted_idx":[]},"gbtree_model_param":{"num_parallel_tree":"1","num_trees":"500"},"iteration_indptr":[0,1,2,3,4,5,6,7,8,9,10,11,12,13,14,15,16,17,18,19,20,21,22,23,24,25,26,27,28,29,30,31,32,33,34,35,36,37,38,39,40,41,42,43,44,45,46,47,48,49,50,51,52,53,54,55,56,57,58,59,60,61,62,63,64,65,66,67,68,69,70,71,72,73,74,75,76,77,78,79,80,81,82,83,84,85,86,87,88,89,90,91,92,93,94,95,96,97,98,99,100,101,102,103,104,105,106,107,108,109,110,111,112,113,114,115,116,117,118,119,120,121,122,123,124,125,126,127,128,129,130,131,132,133,134,135,136,137,138,139,140,141,142,143,144,145,146,147,148,149,150,151,152,153,154,155,156,157,158,159,160,161,162,163,164,165,166,167,168,169,170,171,172,173,174,175,176,177,178,179,180,181,182,183,184,185,186,187,188,189,190,191,192,193,194,195,196,197,198,199,200,201,202,203,204,205,206,207,208,209,210,211,212,213,214,215,216,217,218,219,220,221,222,223,224,225,226,227,228,229,230,231,232,233,234,235,236,237,238,239,240,241,242,243,244,245,246,247,248,249,250,251,252,253,254,255,256,257,258,259,260,261,262,263,264,265,266,267,268,269,270,271,272,273,274,275,276,277,278,279,280,281,282,283,284,285,286,287,288,289,290,291,292,293,294,295,296,297,298,299,300,301,302,303,304,305,306,307,308,309,310,311,312,313,314,315,316,317,318,319,320,321,322,323,324,325,326,327,328,329,330,331,332,333,334,335,336,337,338,339,340,341,342,343,344,345,346,347,348,349,350,351,352,353,354,355,356,357,358,359,360,361,362,363,364,365,366,367,368,369,370,371,372,373,374,375,376,377,378,379,380,381,382,383,384,385,386,387,388,389,390,391,392,393,394,395,396,397,398,399,400,401,402,403,404,405,406,407,408,409,410,411,412,413,414,415,416,417,418,419,420,421,422,423,424,425,426,427,428,429,430,431,432,433,434,435,436,437,438,439,440,441,442,443,444,445,446,447,448,449,450,451,452,453,454,455,456,457,458,459,460,461,462,463,464,465,466,467,468,469,470,471,472,473,474,475,476,477,478,479,480,481,482,483,484,485,486,487,488,489,490,491,492,493,494,495,496,497,498,499,500],"tree_info":[0,0,0,0,0,0,0,0,0,0,0,0,0,0,0,0,0,0,0,0,0,0,0,0,0,0,0,0,0,0,0,0,0,0,0,0,0,0,0,0,0,0,0,0,0,0,0,0,0,0,0,0,0,0,0,0,0,0,0,0,0,0,0,0,0,0,0,0,0,0,0,0,0,0,0,0,0,0,0,0,0,0,0,0,0,0,0,0,0,0,0,0,0,0,0,0,0,0,0,0,0,0,0,0,0,0,0,0,0,0,0,0,0,0,0,0,0,0,0,0,0,0,0,0,0,0,0,0,0,0,0,0,0,0,0,0,0,0,0,0,0,0,0,0,0,0,0,0,0,0,0,0,0,0,0,0,0,0,0,0,0,0,0,0,0,0,0,0,0,0,0,0,0,0,0,0,0,0,0,0,0,0,0,0,0,0,0,0,0,0,0,0,0,0,0,0,0,0,0,0,0,0,0,0,0,0,0,0,0,0,0,0,0,0,0,0,0,0,0,0,0,0,0,0,0,0,0,0,0,0,0,0,0,0,0,0,0,0,0,0,0,0,0,0,0,0,0,0,0,0,0,0,0,0,0,0,0,0,0,0,0,0,0,0,0,0,0,0,0,0,0,0,0,0,0,0,0,0,0,0,0,0,0,0,0,0,0,0,0,0,0,0,0,0,0,0,0,0,0,0,0,0,0,0,0,0,0,0,0,0,0,0,0,0,0,0,0,0,0,0,0,0,0,0,0,0,0,0,0,0,0,0,0,0,0,0,0,0,0,0,0,0,0,0,0,0,0,0,0,0,0,0,0,0,0,0,0,0,0,0,0,0,0,0,0,0,0,0,0,0,0,0,0,0,0,0,0,0,0,0,0,0,0,0,0,0,0,0,0,0,0,0,0,0,0,0,0,0,0,0,0,0,0,0,0,0,0,0,0,0,0,0,0,0,0,0,0,0,0,0,0,0,0,0,0,0,0,0,0,0,0,0,0,0,0,0,0,0,0,0,0,0,0,0,0,0,0,0,0,0,0,0,0,0,0,0,0,0,0,0,0,0,0,0,0,0,0,0,0,0,0,0,0,0,0,0,0,0,0,0,0,0,0,0,0,0,0,0,0,0,0,0,0,0,0,0,0,0,0,0],"trees":[{"base_weights":[-7.6166578E-3,-5.5751663E-1,6.1883664E-1,-2.3863766E-1,-9.837675E-1,1.0373288E0,1.5030687E-1,-1.6887942E-2,-9.0700144E-1,-8.42244E-1,-1.39372E0,1.3380916E0,7.3127353E-1,-4.0039784E-1,8.307683E-1,-1.6067533E-2,1.5274124E-2,-5.1402774E-2,-8.856661E-3,-2.3834093E-2,-4.9553305E-2,7.6601827E-3,-7.326466E-2,6.790834E-2,-3.974558E-2,5.8946043E-2,2.0797834E-2,2.030398E-2,-2.6797095E-2,2.1496456E-2,5.8134835E-2],"categories":[],"categories_nodes":[],"categories_segments":[],"categories_sizes":[],"default_left":[1,1,1,1,1,0,0,1,0,0,0,1,0,0,0,0,0,0,0,0,0,0,0,0,0,0,0,0,0,0,0],"id":0,"left_children":[1,3,5,7,9,11,13,15,17,19,21,23,25,27,29,-1,-1,-1,-1,-1,-1,-1,-1,-1,-1,-1,-1,-1,-1,-1,-1],"loss_changes":[2.2618782E3,4.729956E2,5.99709E2,2.9670764E2,7.8563354E1,1.4205505E2,5.4722455E2,1.4915445E2,4.1990265E1,5.7369873E1,4.3832703E1,4.0595337E1,1.10997925E2,8.938777E1,8.280795E1,0E0,0E0,0E0,0E0,0E0,0E0,0E0,0E0,0E0,0E0,0E0,0E0,0E0,0E0,0E0,0E0],"parents":[2147483647,0,0,1,1,2,2,3,3,4,4,5,5,6,6,7,7,8,8,9,9,10,10,11,11,12,12,13,13,14,14],"right_children":[2,4,6,8,10,12,14,16,18,20,22,24,26,28,30,-1,-1,-1,-1,-1,-1,-1,-1,-1,-1,-1,-1,-1,-1,-1,-1],"split_conditions":[5.8304325E-2,6.111E0,7.127001E0,3.800001E-1,1.975976E-2,3.3966972E1,8.5581385E-2,3.9163496E-2,4.8320152E-2,3.0612131E1,5.4760003E-3,3.1062202E-3,1.7862491E-2,1.682971E-2,1.022281E-1,-1.6067533E-2,1.5274124E-2,-5.1402774E-2,-8.856661E-3,-2.3834093E-2,-4.9553305E-2,7.6601827E-3,-7.326466E-2,6.790834E-2,-3.974558E-2,5.8946043E-2,2.0797834E-2,2.030398E-2,-2.6797095E-2,2.1496456E-2,5.8134835E-2],"split_indices":[159328,0,0,6,52576,159332,159328,159328,159328,159332,5,62683,52576,52576,159328,0,0,0,0,0,0,0,0,0,0,0,0,0,0,0,0],"split_type":[0,0,0,0,0,0,0,0,0,0,0,0,0,0,0,0,0,0,0,0,0,0,0,0,0,0,0,0,0,0,0],"sum_hessian":[6.5561094E3,3.4925232E3,3.0635862E3,2.0036985E3,1.4888247E3,1.613869E3,1.4497172E3,1.5094993E3,4.9419913E2,1.119919E3,3.689057E2,8.0382086E2,8.1004816E2,8.01579E2,6.481382E2,7.779152E2,7.3158405E2,4.2096597E2,7.323313E1,3.3204004E2,7.878789E2,1.5443723E1,3.5346198E2,7.985899E2,5.2309384E0,3.2780545E2,4.8224268E2,1.1283881E2,6.887402E2,3.0015622E2,3.4798193E2],"tree_param":{"num_deleted":"0","num_feature":"159340","num_nodes":"31","size_leaf_vector":"1"}},{"base_weights":[7.628657E-3,4.9117044E-1,-3.3522865E-1,5.523063E-1,-6.74576E-1,-1.4216222E-1,-7.837058E-1,6.993959E-1,4.788534E-2,5.6552336E-2,-9.017039E-1,3.9066564E-2,-6.6678035E-1,-5.433854E-1,-1.155259E0,5.6669533E-2,2.8629417E-2,3.3937994E-2,-8.331669E-3,2.211534E-2,-3.2444973E-2,-5.0847825E-2,8.843872E-3,9.8553235E-3,-1.6418187E-2,1.3414914E-2,-3.9335195E-2,-2.9978588E-2,2.0373035E-2,-1.0304148E-2,-6.39691E-2],"categories":[],"categories_nodes":[],"categories_segments":[],"categories_sizes":[],"default_left":[0,1,1,1,0,1,1,0,0,1,0,0,0,1,0,0,0,0,0,0,0,0,0,0,0,0,0,0,0,0,0],"id":1,"left_children":[1,3,5,7,9,11,13,15,17,19,21,23,25,27,29,-1,-1,-1,-1,-1,-1,-1,-1,-1,-1,-1,-1,-1,-1,-1,-1],"loss_changes":[1.094584E3,1.9701715E2,3.328679E2,1.925138E2,2.4011463E1,2.5813608E2,9.868878E1,1.0602728E2,8.166698E1,1.1124092E1,1.4991699E1,1.17220085E2,7.9705505E1,3.9618378E1,5.0130066E1,0E0,0E0,0E0,0E0,0E0,0E0,0E0,0E0,0E0,0E0,0E0,0E0,0E0,0E0,0E0,0E0],"parents":[2147483647,0,0,1,1,2,2,3,3,4,4,5,5,6,6,7,7,8,8,9,9,10,10,11,11,12,12,13,13,14,14],"right_children":[2,4,6,8,10,12,14,16,18,20,22,24,26,28,30,-1,-1,-1,-1,-1,-1,-1,-1,-1,-1,-1,-1,-1,-1,-1,-1],"split_conditions":[1.4756842E1,5.092065E-2,3.6899996E-1,3.010827E-2,2.6581774E1,2.5999997E-2,5.579442E-4,2.8137732E1,1.8281225E1,2.291154E-3,3.3070175E2,2.4263716E1,2.5481943E1,8.763802E-4,1.7761423E1,5.6669533E-2,2.8629417E-2,3.3937994E-2,-8.331669E-3,2.211534E-2,-3.2444973E-2,-5.0847825E-2,8.843872E-3,9.8553235E-3,-1.6418187E-2,1.3414914E-2,-3.9335195E-2,-2.9978588E-2,2.0373035E-2,-1.0304148E-2,-6.39691E-2],"split_indices":[159338,94190,6,88984,159332,54,88984,159332,159335,62338,1,159335,159332,79581,159335,0,0,0,0,0,0,0,0,0,0,0,0,0,0,0,0],"split_type":[0,0,0,0,0,0,0,0,0,0,0,0,0,0,0,0,0,0,0,0,0,0,0,0,0,0,0,0,0,0,0],"sum_hessian":[6.591491E3,2.7349973E3,3.8564937E3,2.6020269E3,1.3297057E2,2.7020806E3,1.1544132E3,2.0115438E3,5.90483E2,3.1363428E1,1.0160714E2,2.0103342E3,6.9174634E2,7.10115E2,4.4429816E2,4.440887E2,1.5674552E3,1.4827234E2,4.4221063E2,2.239825E1,8.965178E0,9.289374E1,8.713403E0,1.4092318E3,6.011024E2,7.69807E1,6.147656E2,6.7323193E2,3.6883068E1,5.3851326E1,3.904468E2],"tree_param":{"num_deleted":"0","num_feature":"159340","num_nodes":"31","size_leaf_vector":"1"}},{"base_weights":[1.3326984E-3,-5.5517215E-1,3.9574003E-1,-1.547665E-1,-8.6460876E-1,8.9678884E-1,-7.550471E-2,1.01902954E-1,-6.3129216E-1,-4.5580766E-1,-1.048284E0,1.0762411E0,3.134448E-1,-2.95405E-1,8.773151E-1,1.6373623E-2,-2.1052511E-2,-2.7663584E-3,-4.3321263E-2,-2.9394174E-2,2.0091074E-2,-6.415449E-2,-3.695807E-2,3.810602E-2,6.481772E-2,5.1193584E-2,4.7666547E-3,9.161922E-3,-2.4367047E-2,5.7476927E-2,1.8889531E-2],"categories":[],"categories_nodes":[],"categories_segments":[],"categories_sizes":[],"default_left":[0,0,0,1,0,0,0,0,0,0,0,0,0,0,0,0,0,0,0,0,0,0,0,0,0,0,0,0,0,0,0],"id":2,"left_children":[1,3,5,7,9,11,13,15,17,19,21,23,25,27,29,-1,-1,-1,-1,-1,-1,-1,-1,-1,-1,-1,-1,-1,-1,-1,-1],"loss_changes":[1.4426761E3,3.3599713E2,9.097659E2,1.4708345E2,1.1135547E2,1.9231335E2,4.1696204E2,9.260556E1,5.5799698E1,5.6458755E1,6.970325E1,9.1462036E1,6.772937E1,1.4945872E2,4.701239E1,0E0,0E0,0E0,0E0,0E0,0E0,0E0,0E0,0E0,0E0,0E0,0E0,0E0,0E0,0E0,0E0],"parents":[2147483647,0,0,1,1,2,2,3,3,4,4,5,5,6,6,7,7,8,8,9,9,10,10,11,11,12,12,13,13,14,14],"right_children":[2,4,6,8,10,12,14,16,18,20,22,24,26,28,30,-1,-1,-1,-1,-1,-1,-1,-1,-1,-1,-1,-1,-1,-1,-1,-1],"split_conditions":[1.22771814E-1,1.461314E1,1.9570469E1,3.6999993E-2,1.9077517E1,3.899999E-2,2.5905162E-1,2.0861523E1,1.8837523E1,6.783524E2,5.028336E-1,1.560356E-1,2.827872E1,2.1937393E1,1.2040306E0,1.6373623E-2,-2.1052511E-2,-2.7663584E-3,-4.3321263E-2,-2.9394174E-2,2.0091074E-2,-6.415449E-2,-3.695807E-2,3.810602E-2,6.481772E-2,5.1193584E-2,4.7666547E-3,9.161922E-3,-2.4367047E-2,5.7476927E-2,1.8889531E-2],"split_indices":[159331,159338,159338,4,159335,4,159331,159335,159335,1,32436,159331,159332,159335,159333,0,0,0,0,0,0,0,0,0,0,0,0,0,0,0,0],"split_type":[0,0,0,0,0,0,0,0,0,0,0,0,0,0,0,0,0,0,0,0,0,0,0,0,0,0,0,0,0,0,0],"sum_hessian":[6.56359E3,2.7204658E3,3.843124E3,1.1905924E3,1.5298735E3,1.8614998E3,1.9816243E3,7.7499286E2,4.1559958E2,4.81365E2,1.0485085E3,1.4190293E3,4.4247046E2,1.6136996E3,3.6792465E2,5.4408826E2,2.309046E2,1.2350358E2,2.92096E2,4.1950015E2,6.1864838E1,5.850916E2,4.634169E2,5.957282E2,8.233011E2,9.851952E1,3.4395093E2,4.6045328E2,1.1532463E3,2.3263725E2,1.3528741E2],"tree_param":{"num_deleted":"0","num_feature":"159340","num_nodes":"31","size_leaf_vector":"1"}},{"base_weights":[-5.520578E-3,-5.0390077E-1,3.8737327E-1,-3.4242547E-1,-1.1529068E0,8.7519646E-1,-1.03361435E-1,-1.5094942E-1,-7.892248E-1,-8.322734E-1,-1.4402413E0,5.6544375E-1,1.1966609E0,-3.813323E-1,8.302403E-1,2.158217E-3,-3.157361E-2,-4.478922E-2,-1.0498743E-2,-4.7393806E-2,9.583057E-3,-7.335318E-2,-0E0,3.6595725E-2,-6.2060067E-3,6.665232E-2,1.4028728E-2,-2.3492603E-2,1.4388007E-2,2.928164E-2,6.638967E-2],"categories":[],"categories_nodes":[],"categories_segments":[],"categories_sizes":[],"default_left":[0,1,0,1,1,0,0,1,0,0,1,1,1,1,0,0,0,0,0,0,0,0,0,0,0,0,0,0,0,0,0],"id":3,"left_children":[1,3,5,7,9,11,13,15,17,19,21,23,25,27,29,-1,-1,-1,-1,-1,-1,-1,-1,-1,-1,-1,-1,-1,-1,-1,-1],"loss_changes":[1.2837593E3,2.9949536E2,8.78505E2,1.9722589E2,4.448944E1,1.7800342E2,4.761254E2,1.5314563E2,4.0804108E1,3.529573E1,1.2154541E1,1.098602E2,1.0852954E2,8.4643906E1,4.5397064E1,0E0,0E0,0E0,0E0,0E0,0E0,0E0,0E0,0E0,0E0,0E0,0E0,0E0,0E0,0E0,0E0],"parents":[2147483647,0,0,1,1,2,2,3,3,4,4,5,5,6,6,7,7,8,8,9,9,10,10,11,11,12,12,13,13,14,14],"right_children":[2,4,6,8,10,12,14,16,18,20,22,24,26,28,30,-1,-1,-1,-1,-1,-1,-1,-1,-1,-1,-1,-1,-1,-1,-1,-1],"split_conditions":[1.2646344E-1,3.7248E-2,4.7E-2,2.4150395E0,3.7000008E-2,1.6470578E-1,2.5677687E-1,4.5E-2,2.6887E-2,5.151E-3,6.127522E-3,3.1103801E-2,3.4096797E-3,1.8339999E-2,2.9556286E-1,2.158217E-3,-3.157361E-2,-4.478922E-2,-1.0498743E-2,-4.7393806E-2,9.583057E-3,-7.335318E-2,-0E0,3.6595725E-2,-6.2060067E-3,6.665232E-2,1.4028728E-2,-2.3492603E-2,1.4388007E-2,2.928164E-2,6.638967E-2],"split_indices":[159331,51746,4,159326,4,159331,159331,4,5,55,150165,52454,154611,5,159331,0,0,0,0,0,0,0,0,0,0,0,0,0,0,0,0],"split_type":[0,0,0,0,0,0,0,0,0,0,0,0,0,0,0,0,0,0,0,0,0,0,0,0,0,0,0,0,0,0,0],"sum_hessian":[6.545551E3,2.885927E3,3.659624E3,2.3183027E3,5.676241E2,1.8343138E3,1.8253103E3,1.6290851E3,6.892178E2,2.7912012E2,2.88504E2,9.4278357E2,8.915302E2,1.4096342E3,4.156761E2,1.1621061E3,4.6697894E2,5.7836273E2,1.1085499E2,2.5201549E2,2.7104637E1,2.8351718E2,4.9867916E0,7.6036383E2,1.8241978E2,7.7306946E2,1.1846075E2,1.2475668E3,1.6206735E2,2.8731903E2,1.2835706E2],"tree_param":{"num_deleted":"0","num_feature":"159340","num_nodes":"31","size_leaf_vector":"1"}},{"base_weights":[-0E0,-4.6775576E-1,3.697763E-1,-1.0003789E-1,-7.6507753E-1,8.221491E-1,-8.735697E-2,3.113271E-1,-3.2178923E-1,-3.2529843E-1,-9.601211E-1,4.8879275E-1,1.0342263E0,-2.9507378E-1,8.3831245E-1,4.565703E-3,3.67531E-2,-9.769106E-3,-4.8435695E-2,2.457446E-2,-2.2145553E-2,-3.9219584E-2,-6.43218E-2,4.3275483E-2,7.498072E-3,5.608004E-2,5.5456045E-3,3.5232913E-2,-1.8080896E-2,2.8212665E-2,6.618349E-2],"categories":[],"categories_nodes":[],"categories_segments":[],"categories_sizes":[],"default_left":[0,0,0,0,0,0,0,0,1,0,1,0,0,0,0,0,0,0,0,0,0,0,0,0,0,0,0,0,0,0,0],"id":4,"left_children":[1,3,5,7,9,11,13,15,17,19,21,23,25,27,29,-1,-1,-1,-1,-1,-1,-1,-1,-1,-1,-1,-1,-1,-1,-1,-1],"loss_changes":[1.1320109E3,3.1471082E2,7.5683887E2,1.1903189E2,1.3402307E2,1.25921265E2,3.5085703E2,4.135302E1,6.725471E1,4.9013695E1,5.603424E1,9.102222E1,8.828186E1,1.001855E2,3.8829315E1,0E0,0E0,0E0,0E0,0E0,0E0,0E0,0E0,0E0,0E0,0E0,0E0,0E0,0E0,0E0,0E0],"parents":[2147483647,0,0,1,1,2,2,3,3,4,4,5,5,6,6,7,7,8,8,9,9,10,10,11,11,12,12,13,13,14,14],"right_children":[2,4,6,8,10,12,14,16,18,20,22,24,26,28,30,-1,-1,-1,-1,-1,-1,-1,-1,-1,-1,-1,-1,-1,-1,-1,-1],"split_conditions":[1.2646344E-1,1.4756842E1,2.138397E1,1.905083E1,1.9077517E1,1.5515417E-1,2.6093403E-1,1.0634529E-1,3.692499E-2,1.6677378E1,1.4474513E-3,1.9959955E1,5.0294064E2,1.8901205E1,2.9556286E-1,4.565703E-3,3.67531E-2,-9.769106E-3,-4.8435695E-2,2.457446E-2,-2.2145553E-2,-3.9219584E-2,-6.43218E-2,4.3275483E-2,7.498072E-3,5.608004E-2,5.5456045E-3,3.5232913E-2,-1.8080896E-2,2.8212665E-2,6.618349E-2],"split_indices":[159331,159338,159338,159335,159335,159331,159331,159331,50524,159335,66141,159335,3,159335,159331,0,0,0,0,0,0,0,0,0,0,0,0,0,0,0,0],"split_type":[0,0,0,0,0,0,0,0,0,0,0,0,0,0,0,0,0,0,0,0,0,0,0,0,0,0,0,0,0,0,0],"sum_hessian":[6.534506E3,2.8849387E3,3.649567E3,1.2942715E3,1.5906672E3,1.8334275E3,1.8161395E3,4.5103647E2,8.43235E2,4.9439175E2,1.0962754E3,7.2113727E2,1.1122902E3,1.486958E3,3.2918143E2,3.0244E2,1.4859647E2,7.121407E2,1.310943E2,5.915809E1,4.3523367E2,7.2560236E2,3.7067313E2,3.3640012E2,3.8473718E2,1.0141618E3,9.812835E1,8.886795E1,1.3980901E3,2.1861346E2,1.1056798E2],"tree_param":{"num_deleted":"0","num_feature":"159340","num_nodes":"31","size_leaf_vector":"1"}},{"base_weights":[6.093749E-3,-3.1957933E-1,7.9250413E-1,1.4500827E-1,-6.637635E-1,4.795337E-1,1.1640015E0,-1.964144E-1,5.7606864E-1,-5.4757243E-1,-1.1221101E0,9.9328004E-2,9.071275E-1,-6.0334675E-2,1.3226507E0,-3.8611677E-3,-4.409314E-2,3.564676E-2,-3.9670928E-4,-7.6442184E-3,-3.2563757E-2,-5.8252003E-2,-2.0806575E-3,1.0854541E-4,5.5233087E-2,-1.741639E-2,5.2351605E-2,-3.4097236E-2,4.484139E-2,-5.8588004E-3,6.7254506E-2],"categories":[],"categories_nodes":[],"categories_segments":[],"categories_sizes":[],"default_left":[1,0,1,1,1,0,0,1,1,0,1,0,0,0,0,0,0,0,0,0,0,0,0,0,0,0,0,0,0,0,0],"id":5,"left_children":[1,3,5,7,9,11,13,15,17,19,21,23,25,27,29,-1,-1,-1,-1,-1,-1,-1,-1,-1,-1,-1,-1,-1,-1,-1,-1],"loss_changes":[1.6801697E3,7.424677E2,2.189762E2,2.9178906E2,1.3722595E2,1.6971289E2,1.7135791E2,8.899344E1,7.0752716E1,8.621362E1,2.3256165E1,5.3986973E1,8.923822E1,6.48871E1,2.7034912E1,0E0,0E0,0E0,0E0,0E0,0E0,0E0,0E0,0E0,0E0,0E0,0E0,0E0,0E0,0E0,0E0],"parents":[2147483647,0,0,1,1,2,2,3,3,4,4,5,5,6,6,7,7,8,8,9,9,10,10,11,11,12,12,13,13,14,14],"right_children":[2,4,6,8,10,12,14,16,18,20,22,24,26,28,30,-1,-1,-1,-1,-1,-1,-1,-1,-1,-1,-1,-1,-1,-1,-1,-1],"split_conditions":[7.525228E-2,1.519597E1,4.983172E-4,4.6876423E-2,3.2301303E-2,1.0034536E-1,1.1259398E-1,4.3990303E-2,2.9903568E-2,2.017033E1,7.6500005E-3,2.8016495E-3,7.559968E-2,1.5746409E-1,5.2128367E-2,-3.8611677E-3,-4.409314E-2,3.564676E-2,-3.9670928E-4,-7.6442184E-3,-3.2563757E-2,-5.8252003E-2,-2.0806575E-3,1.0854541E-4,5.5233087E-2,-1.741639E-2,5.2351605E-2,-3.4097236E-2,4.484139E-2,-5.8588004E-3,6.7254506E-2],"split_indices":[159328,159338,29436,159328,52454,159328,50348,52454,52454,159338,23,152771,65124,159328,58594,0,0,0,0,0,0,0,0,0,0,0,0,0,0,0,0],"split_type":[0,0,0,0,0,0,0,0,0,0,0,0,0,0,0,0,0,0,0,0,0,0,0,0,0,0,0,0,0,0,0],"sum_hessian":[6.5484844E3,4.631964E3,1.9165205E3,1.971192E3,2.6607715E3,1.0478761E3,8.686444E2,1.1001873E3,8.710048E2,2.1331675E3,5.27604E2,5.591733E2,4.887028E2,9.927889E1,7.693655E2,9.431988E2,1.5698848E2,7.0612604E2,1.6487877E2,4.4843973E2,1.6847279E3,5.0617606E2,2.142795E1,5.153724E2,4.3800938E1,4.75359E1,4.411669E2,6.1694843E1,3.758405E1,1.07985735E1,7.5856696E2],"tree_param":{"num_deleted":"0","num_feature":"159340","num_nodes":"31","size_leaf_vector":"1"}},{"base_weights":[3.0631252E-4,-3.3894727E-1,6.985544E-1,1.0223242E-1,-6.558088E-1,1.1043781E0,4.091239E-1,-2.512162E-1,4.513834E-1,-5.302422E-1,-1.1198275E0,-1.1910259E-1,1.1594875E0,-9.5875785E-3,8.2870185E-1,-1.3654463E-3,-2.861439E-2,2.9516412E-2,-1.9846128E-2,-3.5008658E-2,-1.5839396E-2,-3.8233057E-2,-6.758341E-2,1.265145E-2,-4.1671928E-2,5.9948016E-2,-7.400336E-3,5.8416374E-2,-1.2709535E-2,2.3789178E-3,5.005745E-2],"categories":[],"categories_nodes":[],"categories_segments":[],"categories_sizes":[],"default_left":[1,0,0,1,1,1,0,1,1,0,0,0,1,0,0,0,0,0,0,0,0,0,0,0,0,0,0,0,0,0,0],"id":6,"left_children":[1,3,5,7,9,11,13,15,17,19,21,23,25,27,29,-1,-1,-1,-1,-1,-1,-1,-1,-1,-1,-1,-1,-1,-1,-1,-1],"loss_changes":[1.5361576E3,6.1072076E2,2.4535083E2,2.2616872E2,1.4342761E2,6.0968018E1,2.2000426E2,6.470273E1,1.10043976E2,7.0816284E1,3.6765076E1,1.2698461E1,4.5391357E1,1.8153804E2,8.280841E1,0E0,0E0,0E0,0E0,0E0,0E0,0E0,0E0,0E0,0E0,0E0,0E0,0E0,0E0,0E0,0E0],"parents":[2147483647,0,0,1,1,2,2,3,3,4,4,5,5,6,6,7,7,8,8,9,9,10,10,11,11,12,12,13,13,14,14],"right_children":[2,4,6,8,10,12,14,16,18,20,22,24,26,28,30,-1,-1,-1,-1,-1,-1,-1,-1,-1,-1,-1,-1,-1,-1,-1,-1],"split_conditions":[7.1501434E-2,1.4756842E1,1.4773001E2,4.2303048E-2,2.4001747E-2,1E-4,9.373569E-2,9.893611E-3,3.9506543E-2,4.7161475E-2,2.7088223E1,1.2175638E1,4.2863637E-3,2.167371E-2,6.797924E-2,-1.3654463E-3,-2.861439E-2,2.9516412E-2,-1.9846128E-2,-3.5008658E-2,-1.5839396E-2,-3.8233057E-2,-6.758341E-2,1.265145E-2,-4.1671928E-2,5.9948016E-2,-7.400336E-3,5.8416374E-2,-1.2709535E-2,2.3789178E-3,5.005745E-2],"split_indices":[159328,159338,159325,159328,54700,23,159328,54700,52454,159328,159338,159338,105884,54700,65938,0,0,0,0,0,0,0,0,0,0,0,0,0,0,0,0],"split_type":[0,0,0,0,0,0,0,0,0,0,0,0,0,0,0,0,0,0,0,0,0,0,0,0,0,0,0,0,0,0,0],"sum_hessian":[6.4733584E3,4.357397E3,2.1159614E3,1.8214902E3,2.535907E3,8.73564E2,1.2423973E3,9.04448E2,9.170423E2,2.0059515E3,5.299553E2,3.6619667E1,8.369444E2,6.2309326E2,6.193041E2,5.378822E2,3.6656577E2,7.9029803E2,1.2674425E2,1.1078813E3,8.9807025E2,2.1949942E2,3.1045593E2,2.527943E1,1.1340237E1,8.1356305E2,2.3381344E1,1.0319161E2,5.199017E2,1.1419955E2,5.0510452E2],"tree_param":{"num_deleted":"0","num_feature":"159340","num_nodes":"31","size_leaf_vector":"1"}},{"base_weights":[-9.2777784E-4,4.2525893E-1,-2.3945576E-1,6.337395E-1,-2.415429E-1,-9.242749E-2,-7.328256E-1,6.891156E-1,-7.240349E-1,-6.6117056E-2,-8.467219E-1,2.8581398E-2,-5.2255344E-1,-9.155322E-1,-3.9545807E-1,3.851385E-2,-6.6175037E-3,-4.289406E-2,2.0597555E-2,7.019948E-3,-2.3683544E-2,-7.0765303E-3,-5.27154E-2,4.813468E-3,-4.0905114E-2,-2.1145402E-2,-4.9508985E-2,-5.8128394E-2,-3.0869622E-2,-7.603114E-3,-4.4195976E-2],"categories":[],"categories_nodes":[],"categories_segments":[],"categories_sizes":[],"default_left":[0,1,1,1,1,1,0,1,1,1,1,1,1,0,1,0,0,0,0,0,0,0,0,0,0,0,0,0,0,0,0],"id":7,"left_children":[1,3,5,7,9,11,13,15,17,19,21,23,25,27,29,-1,-1,-1,-1,-1,-1,-1,-1,-1,-1,-1,-1,-1,-1,-1,-1],"loss_changes":[6.611627E2,3.25481E2,3.0151666E2,1.3628271E2,5.8064686E1,1.6826724E2,5.5787903E1,1.153797E2,1.3080677E1,3.7651493E1,1.6171104E1,1.4394728E2,2.9553177E1,3.9870422E1,3.948402E1,0E0,0E0,0E0,0E0,0E0,0E0,0E0,0E0,0E0,0E0,0E0,0E0,0E0,0E0,0E0,0E0],"parents":[2147483647,0,0,1,1,2,2,3,3,4,4,5,5,6,6,7,7,8,8,9,9,10,10,11,11,12,12,13,13,14,14],"right_children":[2,4,6,8,10,12,14,16,18,20,22,24,26,28,30,-1,-1,-1,-1,-1,-1,-1,-1,-1,-1,-1,-1,-1,-1,-1,-1],"split_conditions":[5.851642E0,3.9000005E-2,2.8922658E-2,6.422487E-2,3.8846985E-2,3.4999996E-2,9.903507E-1,4.0624224E-2,3.6195612E-3,2.6983865E-2,8.3099306E-4,4.3631595E-2,1.6246635E-2,1.0107859E-2,3.3241056E-2,3.851385E-2,-6.6175037E-3,-4.289406E-2,2.0597555E-2,7.019948E-3,-2.3683544E-2,-7.0765303E-3,-5.27154E-2,4.813468E-3,-4.0905114E-2,-2.1145402E-2,-4.9508985E-2,-5.8128394E-2,-3.0869622E-2,-7.603114E-3,-4.4195976E-2],"split_indices":[159339,4,61800,94190,52454,114,159337,52454,61801,61800,151972,52454,52454,52577,52454,0,0,0,0,0,0,0,0,0,0,0,0,0,0,0,0],"split_type":[0,0,0,0,0,0,0,0,0,0,0,0,0,0,0,0,0,0,0,0,0,0,0,0,0,0,0,0,0,0,0],"sum_hessian":[6.4956484E3,2.3280066E3,4.1676416E3,1.774838E3,5.531687E2,3.2169329E3,9.5070886E2,1.7083622E3,6.647579E1,4.344356E2,1.1873306E2,2.5124417E3,7.044914E2,6.092353E2,3.414736E2,1.5561431E3,1.522192E2,6.135148E1,5.1243134E0,2.8887866E2,1.4555696E2,3.001051E1,8.872255E1,2.331651E3,1.8079082E2,5.903544E2,1.14136986E2,3.2340982E2,2.8582547E2,2.3365118E2,1.07822426E2],"tree_param":{"num_deleted":"0","num_feature":"159340","num_nodes":"31","size_leaf_vector":"1"}},{"base_weights":[-4.188235E-4,-4.0785885E-1,3.3255613E-1,3.218163E-2,-6.175841E-1,7.3832244E-1,-6.622673E-2,-1.8638484E-1,4.3057793E-1,-8.53913E-1,-3.5693893E-1,8.401462E-1,7.805929E-2,-3.405964E-1,5.147036E-1,5.4767556E-2,-1.2360321E-2,4.8311044E-2,1.326554E-2,-3.514446E-2,-6.1678763E-2,-3.0683104E-2,-0E0,7.700009E-3,4.7272958E-2,1.717369E-2,-3.673869E-2,8.836508E-3,-2.6054848E-2,1.51176825E-2,5.115801E-2],"categories":[],"categories_nodes":[],"categories_segments":[],"categories_sizes":[],"default_left":[0,0,0,0,0,1,0,0,0,1,0,1,0,0,0,0,0,0,0,0,0,0,0,0,0,0,0,0,0,0,0],"id":8,"left_children":[1,3,5,7,9,11,13,15,17,19,21,23,25,27,29,-1,-1,-1,-1,-1,-1,-1,-1,-1,-1,-1,-1,-1,-1,-1,-1],"loss_changes":[8.79481E2,2.6983493E2,5.7788354E2,8.2893196E1,1.19036865E2,1.1768475E2,2.878659E2,4.820002E1,2.7385735E1,5.285504E1,8.756128E1,1.0878967E2,5.33345E1,1.1546121E2,5.961763E1,0E0,0E0,0E0,0E0,0E0,0E0,0E0,0E0,0E0,0E0,0E0,0E0,0E0,0E0,0E0,0E0],"parents":[2147483647,0,0,1,1,2,2,3,3,4,4,5,5,6,6,7,7,8,8,9,9,10,10,11,11,12,12,13,13,14,14],"right_children":[2,4,6,8,10,12,14,16,18,20,22,24,26,28,30,-1,-1,-1,-1,-1,-1,-1,-1,-1,-1,-1,-1,-1,-1,-1,-1],"split_conditions":[1.27558E-1,1.905083E1,1.0210912E1,1.0239359E-1,1.3024E-2,4.0579643E-2,2.4038488E-1,1.9214366E-2,3.5208888E0,4.1073475E-2,9.4862126E-2,3.36E-3,2.162099E1,2.1937393E1,2.838636E-1,5.4767556E-2,-1.2360321E-2,4.8311044E-2,1.326554E-2,-3.514446E-2,-6.1678763E-2,-3.0683104E-2,-0E0,7.700009E-3,4.7272958E-2,1.717369E-2,-3.673869E-2,8.836508E-3,-2.6054848E-2,1.51176825E-2,5.115801E-2],"split_indices":[159331,159335,159339,159331,39,52608,159331,52608,159339,50524,159331,39,159335,159335,159331,0,0,0,0,0,0,0,0,0,0,0,0,0,0,0,0],"split_type":[0,0,0,0,0,0,0,0,0,0,0,0,0,0,0,0,0,0,0,0,0,0,0,0,0,0,0,0,0,0,0],"sum_hessian":[6.4720757E3,2.9114277E3,3.560648E3,9.3955035E2,1.9718773E3,1.7640037E3,1.7966443E3,6.068007E2,3.3274966E2,1.0261984E3,9.4567896E2,1.5258198E3,2.3818388E2,1.2228771E3,5.7376715E2,2.2892073E1,5.839086E2,7.131844E1,2.614312E2,7.462444E2,2.7995398E2,5.491513E2,3.9652768E2,2.0593002E2,1.3198898E3,1.8265799E2,5.5525894E1,3.149044E2,9.079727E2,4.117468E2,1.6202037E2],"tree_param":{"num_deleted":"0","num_feature":"159340","num_nodes":"31","size_leaf_vector":"1"}},{"base_weights":[-6.9173956E-3,6.4301383E-1,-3.2036766E-1,1.0923016E0,3.915789E-1,-7.580086E-2,-6.3404185E-1,2.3048562E-1,1.1818515E0,6.678063E-1,7.1858615E-2,3.269297E-1,-3.5900253E-1,-5.228165E-1,-1.0563788E0,3.7655007E-2,-1.0840142E-2,6.0611792E-2,-5.915561E-2,-1.0590437E-2,4.090066E-2,4.6696972E-2,-8.243962E-3,3.1239018E-2,3.8924497E-3,-5.8542667E-3,-3.8623054E-2,-2.8539736E-2,2.124455E-2,-2.6294572E-2,-6.109912E-2],"categories":[],"categories_nodes":[],"categories_segments":[],"categories_sizes":[],"default_left":[0,0,1,0,0,0,1,0,1,0,0,0,1,1,0,0,0,0,0,0,0,0,0,0,0,0,0,0,0,0,0],"id":9,"left_children":[1,3,5,7,9,11,13,15,17,19,21,23,25,27,29,-1,-1,-1,-1,-1,-1,-1,-1,-1,-1,-1,-1,-1,-1,-1,-1],"loss_changes":[1.3161919E3,2.3378766E2,3.335768E2,5.509796E1,1.1883954E2,2.8093256E2,8.528485E1,1.9550089E1,5.5850037E1,9.7339935E1,1.3136543E2,7.442147E1,1.4337552E2,7.056293E1,2.9384674E1,0E0,0E0,0E0,0E0,0E0,0E0,0E0,0E0,0E0,0E0,0E0,0E0,0E0,0E0,0E0,0E0],"parents":[2147483647,0,0,1,1,2,2,3,3,4,4,5,5,6,6,7,7,8,8,9,9,10,10,11,11,12,12,13,13,14,14],"right_children":[2,4,6,8,10,12,14,16,18,20,22,24,26,28,30,-1,-1,-1,-1,-1,-1,-1,-1,-1,-1,-1,-1,-1,-1,-1,-1],"split_conditions":[1.3627383E0,3.5253315E1,6.1970005E0,1.422175E-1,1.3489406E0,1.3817134E0,2.0073608E-2,1.2979944E0,7.650922E-3,1.634E-3,2.1961465E-2,3.2552395E1,3.0599976E-1,2.2239794E-3,2.827872E1,3.7655007E-2,-1.0840142E-2,6.0611792E-2,-5.915561E-2,-1.0590437E-2,4.090066E-2,4.6696972E-2,-8.243962E-3,3.1239018E-2,3.8924497E-3,-5.8542667E-3,-3.8623054E-2,-2.8539736E-2,2.124455E-2,-2.6294572E-2,-6.109912E-2],"split_indices":[159330,159332,0,25370,159330,159330,52576,159330,63987,63,52576,159332,6,52609,159332,0,0,0,0,0,0,0,0,0,0,0,0,0,0,0,0],"split_type":[0,0,0,0,0,0,0,0,0,0,0,0,0,0,0,0,0,0,0,0,0,0,0,0,0,0,0,0,0,0,0],"sum_hessian":[6.452281E3,2.0965955E3,4.3556855E3,7.448781E2,1.3517174E3,2.4527283E3,1.902957E3,7.284679E1,6.720313E2,7.205852E2,6.3113226E2,1.01088434E3,1.441844E3,1.5170015E3,3.8595557E2,3.3049152E1,3.9797638E1,6.6633044E2,5.700858E0,1.03832375E2,6.167528E2,1.337135E2,4.9741876E2,4.551088E2,5.557756E2,9.151932E2,5.266508E2,1.4468E3,7.0201385E1,9.822432E1,2.8773123E2],"tree_param":{"num_deleted":"0","num_feature":"159340","num_nodes":"31","size_leaf_vector":"1"}},{"base_weights":[-3.76047E-3,6.1977726E-1,-3.0259418E-1,2.6988485E-1,8.806845E-1,-6.5448647E-3,-6.53183E-1,7.7411747E-1,-6.538421E-2,9.032192E-1,-6.999365E-2,3.6022514E-1,-2.7742442E-1,-5.5506593E-1,-1.0469295E0,4.715762E-2,-6.2388415E-4,6.493387E-4,-4.107597E-2,1.2054643E-2,4.9272142E-2,2.5227219E-2,-1.192169E-2,-7.837582E-3,-4.1510668E-2,-2.8720502E-2,4.6280842E-2,-5.4308083E-2,-2.0537782E-3],"categories":[],"categories_nodes":[],"categories_segments":[],"categories_sizes":[],"default_left":[0,0,0,0,1,0,1,0,1,0,0,1,1,1,0,0,0,0,0,0,0,0,0,0,0,0,0,0,0],"id":10,"left_children":[1,3,5,7,9,11,13,15,17,19,-1,21,23,25,27,-1,-1,-1,-1,-1,-1,-1,-1,-1,-1,-1,-1,-1,-1],"loss_changes":[1.1964865E3,1.8752856E2,4.500876E2,1.5264763E2,6.685693E1,2.3500905E2,7.2247375E1,4.8844986E1,3.3000813E1,6.179651E1,0E0,8.7584564E1,8.925449E1,4.8224365E1,1.3986328E1,0E0,0E0,0E0,0E0,0E0,0E0,0E0,0E0,0E0,0E0,0E0,0E0,0E0,0E0],"parents":[2147483647,0,0,1,1,2,2,3,3,4,4,5,5,6,6,7,7,8,8,9,9,11,11,12,12,13,13,14,14],"right_children":[2,4,6,8,10,12,14,16,18,20,-1,22,24,26,28,-1,-1,-1,-1,-1,-1,-1,-1,-1,-1,-1,-1,-1,-1],"split_conditions":[1.3627383E0,3.0968362E-1,1.937045E1,1.3413833E0,3.780493E-3,1.3817134E0,3.2301303E-2,9.687746E1,4.096975E-2,8.243403E-2,-6.999365E-2,3.2028545E-2,3.9851207E-2,7.945475E-3,2.089016E2,4.715762E-2,-6.2388415E-4,6.493387E-4,-4.107597E-2,1.2054643E-2,4.9272142E-2,2.5227219E-2,-1.192169E-2,-7.837582E-3,-4.1510668E-2,-2.8720502E-2,4.6280842E-2,-5.4308083E-2,-2.0537782E-3],"split_indices":[159330,154472,159338,159330,56821,159330,52454,159327,1678,120120,0,52454,52454,150149,159321,0,0,0,0,0,0,0,0,0,0,0,0,0,0],"split_type":[0,0,0,0,0,0,0,0,0,0,0,0,0,0,0,0,0,0,0,0,0,0,0,0,0,0,0,0,0],"sum_hessian":[6.4128594E3,2.0748408E3,4.3380186E3,8.9226465E2,1.182576E3,2.3562583E3,1.9817604E3,3.5491827E2,5.373464E2,1.1744296E3,8.14659E0,9.9869196E2,1.3575663E3,1.5981167E3,3.8364365E2,2.923665E2,6.2551777E1,4.9013687E2,4.7209503E1,1.33247E2,1.0411825E3,8.066811E2,1.9201088E2,1.1210664E3,2.3649986E2,1.5811952E3,1.6921494E1,3.6790073E2,1.5742911E1],"tree_param":{"num_deleted":"0","num_feature":"159340","num_nodes":"29","size_leaf_vector":"1"}},{"base_weights":[-1.0921237E-3,-3.684715E-1,2.883836E-1,-2.3646294E-1,-9.0193796E-1,7.029446E-1,-6.343003E-2,-4.6006176E-1,9.84255E-3,-6.4530694E-1,-1.1654798E0,3.9904046E-1,9.3352896E-1,-2.4443893E-1,6.398577E-1,-2.5280831E-2,2.1145344E-2,1.0638605E-2,-1.39918495E-2,-3.6659595E-2,1.1355634E-2,-6.1089545E-2,-7.0697576E-4,-5.4226633E-2,2.2635266E-2,1.6246388E-2,5.292947E-2,-3.7229985E-3,-2.7415244E-2,2.0164669E-2,5.407524E-2],"categories":[],"categories_nodes":[],"categories_segments":[],"categories_sizes":[],"default_left":[0,1,0,0,1,0,0,0,1,1,1,0,1,1,0,0,0,0,0,0,0,0,0,0,0,0,0,0,0,0,0],"id":11,"left_children":[1,3,5,7,9,11,13,15,17,19,21,23,25,27,29,-1,-1,-1,-1,-1,-1,-1,-1,-1,-1,-1,-1,-1,-1,-1,-1],"loss_changes":[6.7833527E2,1.9583496E2,5.208926E2,1.250832E2,3.1935638E1,1.1162573E2,2.4633607E2,4.8945694E1,6.3683098E1,2.3887459E1,1.5889221E1,5.8946114E1,6.737982E1,7.8782684E1,3.767868E1,0E0,0E0,0E0,0E0,0E0,0E0,0E0,0E0,0E0,0E0,0E0,0E0,0E0,0E0,0E0,0E0],"parents":[2147483647,0,0,1,1,2,2,3,3,4,4,5,5,6,6,7,7,8,8,9,9,10,10,11,11,12,12,13,13,14,14],"right_children":[2,4,6,8,10,12,14,16,18,20,22,24,26,28,30,-1,-1,-1,-1,-1,-1,-1,-1,-1,-1,-1,-1,-1,-1,-1,-1],"split_conditions":[1.2569919E-1,3.7248E-2,4E-2,9.9112624E-1,4.1E-2,1.569946E-1,2.5905162E-1,3.297881E2,2.8000005E-2,2.0330364E-3,8.442982E-3,1.978546E-1,3.64E-3,3.1318113E-2,2.9556286E-1,-2.5280831E-2,2.1145344E-2,1.0638605E-2,-1.39918495E-2,-3.6659595E-2,1.1355634E-2,-6.1089545E-2,-7.0697576E-4,-5.4226633E-2,2.2635266E-2,1.6246388E-2,5.292947E-2,-3.7229985E-3,-2.7415244E-2,2.0164669E-2,5.407524E-2],"split_indices":[159331,51746,4,159337,4,159331,159331,159323,4,52609,50193,1256,39,27160,159331,0,0,0,0,0,0,0,0,0,0,0,0,0,0,0,0],"split_type":[0,0,0,0,0,0,0,0,0,0,0,0,0,0,0,0,0,0,0,0,0,0,0,0,0,0,0,0,0,0,0],"sum_hessian":[6.367736E3,2.8071792E3,3.560557E3,2.2576138E3,5.4956537E2,1.633531E3,1.9270258E3,1.1832065E3,1.0744072E3,2.890918E2,2.604736E2,7.1248456E2,9.2104645E2,1.5363033E3,3.9072247E2,1.1282655E3,5.4941048E1,6.3461743E2,4.3978976E2,2.64401E2,2.4690792E1,2.4720833E2,1.3265268E1,2.0869284E1,6.916153E2,1.614319E2,7.596145E2,9.9129877E2,5.450045E2,2.6213968E2,1.2858278E2],"tree_param":{"num_deleted":"0","num_feature":"159340","num_nodes":"31","size_leaf_vector":"1"}},{"base_weights":[1.4380323E-3,5.7797813E-1,-2.7341425E-1,7.9417515E-1,1.6298884E-1,-9.731936E-2,-6.5009856E-1,-1.9067052E-1,8.7415355E-1,7.301352E-1,-2.7000353E-1,2.2147845E-1,-3.7517968E-1,1.9156906E-1,-7.0888305E-1,2.5353113E-2,-4.4120695E-2,-1.894098E-2,4.6200022E-2,6.2576614E-2,2.6168803E-2,2.320419E-2,-1.7807301E-2,1.991815E-2,-1.4416668E-2,-1.44361695E-2,-5.7298478E-2,3.5697732E-2,-1.4189513E-2,-2.9632822E-2,-5.2800965E-2],"categories":[],"categories_nodes":[],"categories_segments":[],"categories_sizes":[],"default_left":[0,1,1,0,0,0,0,0,1,0,0,1,1,1,1,0,0,0,0,0,0,0,0,0,0,0,0,0,0,0,0],"id":12,"left_children":[1,3,5,7,9,11,13,15,17,19,21,23,25,27,29,-1,-1,-1,-1,-1,-1,-1,-1,-1,-1,-1,-1,-1,-1,-1,-1],"loss_changes":[1.0138286E3,1.8375195E2,2.8615527E2,1.0827991E2,1.7715527E2,2.6262088E2,6.931085E1,5.327744E1,8.070776E1,2.8597656E1,2.6543882E1,1.2505223E2,1.0248006E2,2.4462744E1,4.722827E1,0E0,0E0,0E0,0E0,0E0,0E0,0E0,0E0,0E0,0E0,0E0,0E0,0E0,0E0,0E0,0E0],"parents":[2147483647,0,0,1,1,2,2,3,3,4,4,5,5,6,6,7,7,8,8,9,9,10,10,11,11,12,12,13,13,14,14],"right_children":[2,4,6,8,10,12,14,16,18,20,22,24,26,28,30,-1,-1,-1,-1,-1,-1,-1,-1,-1,-1,-1,-1,-1,-1,-1,-1],"split_conditions":[1.3627383E0,4.106328E-3,8.823E0,4.3290764E-1,1.3457165E0,1.3335533E0,3.9649997E-3,1.3104038E0,1E-4,1.3222169E0,2.825339E-2,2.9903568E-2,5.864009E-2,1.7704204E-2,2.2704588E-2,2.5353113E-2,-4.4120695E-2,-1.894098E-2,4.6200022E-2,6.2576614E-2,2.6168803E-2,2.320419E-2,-1.7807301E-2,1.991815E-2,-1.4416668E-2,-1.44361695E-2,-5.7298478E-2,3.5697732E-2,-1.4189513E-2,-2.9632822E-2,-5.2800965E-2],"split_indices":[159330,125854,0,1256,159330,159333,115,159330,23,159330,119074,52454,94190,155862,51746,0,0,0,0,0,0,0,0,0,0,0,0,0,0,0,0],"split_type":[0,0,0,0,0,0,0,0,0,0,0,0,0,0,0,0,0,0,0,0,0,0,0,0,0,0,0,0,0,0,0],"sum_hessian":[6.385966E3,2.0609553E3,4.3250103E3,1.3504387E3,7.1051666E2,2.9533193E3,1.371691E3,9.997187E1,1.2504668E3,3.0711996E2,4.0339667E2,1.3741406E3,1.5791786E3,8.7700676E1,1.2839904E3,4.9715347E1,5.0256523E1,4.581372E1,1.2046531E3,7.865894E1,2.2846101E2,3.8842625E1,3.6455405E2,1.02244666E3,3.5169397E2,1.4272592E3,1.5191951E2,4.1590145E1,4.6110527E1,9.7422266E2,3.0976767E2],"tree_param":{"num_deleted":"0","num_feature":"159340","num_nodes":"31","size_leaf_vector":"1"}},{"base_weights":[-2.1343175E-4,8.959151E-2,-6.202501E-1,3.6562774E-1,-1.2926832E-1,2.490253E-2,-7.855441E-1,2.891265E-1,9.1690516E-1,-2.6885965E-3,-5.260305E-1,2.7024826E-1,-4.6957424E-1,-8.342912E-1,5.356344E-1,1.8394751E-2,-1.1524948E-2,5.262062E-2,1.39565095E-2,6.1944933E-3,-1.5564372E-2,-1.9731333E-2,-4.6409786E-2,2.3434505E-2,-1.1201778E-2,-3.4770202E-2,1.1382096E-2,-3.149545E-2,-5.703484E-2,3.9264467E-2,-1.7269652E-2],"categories":[],"categories_nodes":[],"categories_segments":[],"categories_sizes":[],"default_left":[1,0,0,1,1,1,1,1,1,1,1,1,1,0,1,0,0,0,0,0,0,0,0,0,0,0,0,0,0,0,0],"id":13,"left_children":[1,3,5,7,9,11,13,15,17,19,21,23,25,27,29,-1,-1,-1,-1,-1,-1,-1,-1,-1,-1,-1,-1,-1,-1,-1,-1],"loss_changes":[3.5509323E2,3.364068E2,8.6916626E1,1.0131683E2,1.5531273E2,2.0841215E1,4.399579E1,8.94305E1,2.2795975E1,9.25494E1,3.640767E1,1.2240656E1,1.0116846E1,3.3687134E1,7.3440866E0,0E0,0E0,0E0,0E0,0E0,0E0,0E0,0E0,0E0,0E0,0E0,0E0,0E0,0E0,0E0,0E0],"parents":[2147483647,0,0,1,1,2,2,3,3,4,4,5,5,6,6,7,7,8,8,9,9,10,10,11,11,12,12,13,13,14,14],"right_children":[2,4,6,8,10,12,14,16,18,20,22,24,26,28,30,-1,-1,-1,-1,-1,-1,-1,-1,-1,-1,-1,-1,-1,-1,-1,-1],"split_conditions":[3.7248E-2,2.0656515E1,2.6863548E1,4.7062617E-4,1.8999998E-2,2.5712421E-2,5.647425E-3,4.511781E-2,3.6681093E-2,4.4999998E-2,1.9531415E-3,5.7618782E-2,1.0839911E-2,2.054664E1,5.1628523E-2,1.8394751E-2,-1.1524948E-2,5.262062E-2,1.39565095E-2,6.1944933E-3,-1.5564372E-2,-1.9731333E-2,-4.6409786E-2,2.3434505E-2,-1.1201778E-2,-3.4770202E-2,1.1382096E-2,-3.149545E-2,-5.703484E-2,3.9264467E-2,-1.7269652E-2],"split_indices":[51746,159335,159332,52609,78,98156,50525,105406,88984,38,54701,88984,54701,159335,156092,0,0,0,0,0,0,0,0,0,0,0,0,0,0,0,0],"split_type":[0,0,0,0,0,0,0,0,0,0,0,0,0,0,0,0,0,0,0,0,0,0,0,0,0,0,0,0,0,0,0],"sum_hessian":[6.357602E3,5.555604E3,8.019984E2,2.4574143E3,3.0981895E3,1.6320317E2,6.387952E2,2.1662397E3,2.911746E2,2.3545632E3,7.4362616E2,1.11947556E2,5.125562E1,6.1857153E2,2.0223703E1,1.8840297E3,2.8221014E2,2.36176E2,5.4998604E1,1.6695242E3,6.8503906E2,5.6983167E2,1.7379448E2,8.1506775E1,3.0440779E1,3.9808754E1,1.1446866E1,3.8218475E2,2.3638676E2,1.7066092E1,3.1576107E0],"tree_param":{"num_deleted":"0","num_feature":"159340","num_nodes":"31","size_leaf_vector":"1"}},{"base_weights":[-4.9338634E-3,-3.5314527E-1,4.125549E-1,-8.144584E-2,-6.299885E-1,6.9755226E-1,7.153531E-2,-2.2969978E-1,3.048589E-1,-5.214878E-1,-9.576031E-1,7.837844E-1,-1.0857835E-1,-2.4233638E-1,6.7684704E-1,-5.5770366E-3,-3.3878006E-2,-0E0,3.0110423E-2,-3.3411194E-2,-1.467713E-2,-5.0787073E-2,9.60845E-3,4.1513573E-2,-1.0109912E-2,-3.4643095E-2,2.754852E-2,-2.8752342E-2,-2.1436212E-3,2.0603124E-2,5.0879147E-2],"categories":[],"categories_nodes":[],"categories_segments":[],"categories_sizes":[],"default_left":[0,0,0,0,1,1,0,1,0,0,0,1,0,0,1,0,0,0,0,0,0,0,0,0,0,0,0,0,0,0,0],"id":14,"left_children":[1,3,5,7,9,11,13,15,17,19,21,23,25,27,29,-1,-1,-1,-1,-1,-1,-1,-1,-1,-1,-1,-1,-1,-1,-1,-1],"loss_changes":[9.258705E2,2.6034277E2,2.8036774E2,1.0112232E2,5.7098755E1,1.10585266E2,2.5303651E2,6.6422806E1,4.4092693E1,4.1672607E1,2.9820618E1,6.676111E1,6.196231E1,5.7347275E1,3.7518494E1,0E0,0E0,0E0,0E0,0E0,0E0,0E0,0E0,0E0,0E0,0E0,0E0,0E0,0E0,0E0,0E0],"parents":[2147483647,0,0,1,1,2,2,3,3,4,4,5,5,6,6,7,7,8,8,9,9,10,10,11,11,12,12,13,13,14,14],"right_children":[2,4,6,8,10,12,14,16,18,20,22,24,26,28,30,-1,-1,-1,-1,-1,-1,-1,-1,-1,-1,-1,-1,-1,-1,-1,-1],"split_conditions":[5.8620416E-2,1.745959E1,2.409392E1,1.2329631E-1,2.0073608E-2,5.089119E-4,9.1535434E-2,3.5159312E-2,6.365091E-2,6.595262E-2,2.180697E2,4.9950793E-2,1.9571596E-1,1.3032325E-1,1.1238746E-1,-5.5770366E-3,-3.3878006E-2,-0E0,3.0110423E-2,-3.3411194E-2,-1.467713E-2,-5.0787073E-2,9.60845E-3,4.1513573E-2,-1.0109912E-2,-3.4643095E-2,2.754852E-2,-2.8752342E-2,-2.1436212E-3,2.0603124E-2,5.0879147E-2],"split_indices":[159328,159338,159338,159331,52576,106330,159328,51746,97482,158260,159321,51746,159331,27312,159328,0,0,0,0,0,0,0,0,0,0,0,0,0,0,0,0],"split_type":[0,0,0,0,0,0,0,0,0,0,0,0,0,0,0,0,0,0,0,0,0,0,0,0,0,0,0,0,0,0,0],"sum_hessian":[6.3592686E3,3.4690405E3,2.8902283E3,1.7558739E3,1.7131666E3,1.5699922E3,1.3202361E3,1.2722372E3,4.836367E2,1.2989774E3,4.1418918E2,1.4195242E3,1.5046799E2,8.7030426E2,4.499318E2,1.01336035E3,2.5887686E2,2.4182892E2,2.4180779E2,7.817158E2,5.172616E2,3.9563635E2,1.8552809E1,1.3573326E3,6.2191578E1,8.0456505E1,7.001148E1,3.2079034E2,5.495139E2,2.6105127E2,1.8888052E2],"tree_param":{"num_deleted":"0","num_feature":"159340","num_nodes":"31","size_leaf_vector":"1"}},{"base_weights":[3.0851797E-3,6.207682E-1,-2.207282E-1,4.4193E-1,1.0185317E0,8.046857E-2,-5.4751796E-1,6.947941E-1,2.1644634E-1,1.0573745E0,-2.5154656E-1,3.4826693E-1,-3.195867E-1,6.303163E-2,-6.2912637E-1,2.2871315E-3,4.5674965E-2,4.3732203E-3,3.91292E-2,-0E0,5.4886635E-2,1.3390576E-2,-3.8593847E-2,2.8241307E-2,-8.708651E-3,-3.9028365E-3,-4.1393984E-2,3.1371903E-2,-1.1555617E-2,-1.8494137E-2,-3.9863028E-2],"categories":[],"categories_nodes":[],"categories_segments":[],"categories_sizes":[],"default_left":[0,1,0,0,1,0,0,1,1,0,0,0,0,0,0,0,0,0,0,0,0,0,0,0,0,0,0,0,0,0,0],"id":15,"left_children":[1,3,5,7,9,11,13,15,17,19,21,23,25,27,29,-1,-1,-1,-1,-1,-1,-1,-1,-1,-1,-1,-1,-1,-1,-1,-1],"loss_changes":[8.758768E2,1.1618823E2,4.5811118E2,6.523457E1,2.7651428E1,2.5996887E2,1.1193512E2,7.672278E1,4.4760803E1,2.0838928E1,6.5704412E0,1.6540674E2,1.18093575E2,4.530934E1,8.322693E1,0E0,0E0,0E0,0E0,0E0,0E0,0E0,0E0,0E0,0E0,0E0,0E0,0E0,0E0,0E0,0E0],"parents":[2147483647,0,0,1,1,2,2,3,3,4,4,5,5,6,6,7,7,8,8,9,9,10,10,11,11,12,12,13,13,14,14],"right_children":[2,4,6,8,10,12,14,16,18,20,22,24,26,28,30,-1,-1,-1,-1,-1,-1,-1,-1,-1,-1,-1,-1,-1,-1,-1,-1],"split_conditions":[1.3582306E0,8.442707E-4,3.7E-2,1.3392342E0,4.1814346E-2,1.3870713E0,1.8281225E1,4.2399997E-3,2.164131E-3,1.0398158E-1,2.4185628E-2,2.126886E1,2.0715242E1,1.3817134E0,1.3755126E0,2.2871315E-3,4.5674965E-2,4.3732203E-3,3.91292E-2,-0E0,5.4886635E-2,1.3390576E-2,-3.8593847E-2,2.8241307E-2,-8.708651E-3,-3.9028365E-3,-4.1393984E-2,3.1371903E-2,-1.1555617E-2,-1.8494137E-2,-3.9863028E-2],"split_indices":[159330,65163,4,159330,27818,159330,159335,39,152183,50348,151330,159335,159335,159330,159330,0,0,0,0,0,0,0,0,0,0,0,0,0,0,0,0],"split_type":[0,0,0,0,0,0,0,0,0,0,0,0,0,0,0,0,0,0,0,0,0,0,0,0,0,0,0,0,0,0,0],"sum_hessian":[6.3228022E3,1.6805098E3,4.6422925E3,1.1683002E3,5.122096E2,2.416111E3,2.2261812E3,5.437174E2,6.2458276E2,4.9858606E2,1.3623554E1,1.4491752E3,9.669359E2,2.6116577E2,1.9650155E3,1.3971202E2,4.0400537E2,5.1482916E2,1.0975359E2,1.905455E1,4.7953152E2,7.070718E0,6.552837E0,1.0255696E3,4.236056E2,6.607139E2,3.0622195E2,8.870051E1,1.7246524E2,7.8168854E2,1.1833269E3],"tree_param":{"num_deleted":"0","num_feature":"159340","num_nodes":"31","size_leaf_vector":"1"}},{"base_weights":[-2.7576915E-3,-2.7628964E-1,4.6046522E-1,-1.5683336E-2,-6.1400664E-1,7.260256E-1,9.826651E-2,-3.7691504E-1,2.4130952E-1,-7.9799664E-1,-3.8802034E-1,-0E0,8.506298E-1,-1.5964384E-1,7.157053E-1,-4.767151E-3,-3.227369E-2,2.144183E-2,-1.8552614E-2,-3.2362454E-2,-5.220255E-2,-1.2500071E-3,-2.8034016E-2,4.1495066E-2,-1.2629144E-2,-4.2654585E-2,4.3998238E-2,7.508304E-3,-1.8595954E-2,4.104917E-2,1.1560427E-3],"categories":[],"categories_nodes":[],"categories_segments":[],"categories_sizes":[],"default_left":[1,0,0,1,0,1,0,1,1,1,0,1,0,1,1,0,0,0,0,0,0,0,0,0,0,0,0,0,0,0,0],"id":16,"left_children":[1,3,5,7,9,11,13,15,17,19,21,23,25,27,29,-1,-1,-1,-1,-1,-1,-1,-1,-1,-1,-1,-1,-1,-1,-1,-1],"loss_changes":[7.997195E2,3.4877573E2,2.2413153E2,2.0927567E2,6.9098816E1,1.2201355E2,1.6010226E2,6.988379E1,1.5185074E2,2.9986511E1,4.8703712E1,4.356208E1,6.132953E1,4.700456E1,2.0657654E1,0E0,0E0,0E0,0E0,0E0,0E0,0E0,0E0,0E0,0E0,0E0,0E0,0E0,0E0,0E0,0E0],"parents":[2147483647,0,0,1,1,2,2,3,3,4,4,5,5,6,6,7,7,8,8,9,9,10,10,11,11,12,12,13,13,14,14],"right_children":[2,4,6,8,10,12,14,16,18,20,22,24,26,28,30,-1,-1,-1,-1,-1,-1,-1,-1,-1,-1,-1,-1,-1,-1,-1,-1],"split_conditions":[6.626351E-2,2.077174E1,2.2746447E1,3.3833425E-2,4.6876423E-2,1.1779999E-3,9.938417E-2,7.999234E-3,3.6782727E-2,2.4312884E-3,2.2107504E1,3.479626E-4,2.2460374E-1,2.3977235E-3,4.3336287E-2,-4.767151E-3,-3.227369E-2,2.144183E-2,-1.8552614E-2,-3.2362454E-2,-5.220255E-2,-1.2500071E-3,-2.8034016E-2,4.1495066E-2,-1.2629144E-2,-4.2654585E-2,4.3998238E-2,7.508304E-3,-1.8595954E-2,4.104917E-2,1.1560427E-3],"split_indices":[159328,159335,159335,159328,159328,63,159328,52454,52454,52454,159335,154610,42694,105596,46710,0,0,0,0,0,0,0,0,0,0,0,0,0,0,0,0],"split_type":[0,0,0,0,0,0,0,0,0,0,0,0,0,0,0,0,0,0,0,0,0,0,0,0,0,0,0,0,0,0,0],"sum_hessian":[6.303035E3,3.9655593E3,2.337476E3,2.242941E3,1.7226183E3,1.3441648E3,9.933112E2,9.33027E2,1.309914E3,9.401229E2,7.8249536E2,1.9768692E2,1.1464779E3,7.021174E2,2.9119385E2,4.6060333E2,4.724236E2,1.00521326E3,3.047007E2,5.9674066E2,3.433823E2,2.5592503E2,5.265704E2,4.3504093E1,1.5418282E2,1.6452446E1,1.1300254E3,2.8415417E2,4.179632E2,2.5071277E2,4.048108E1],"tree_param":{"num_deleted":"0","num_feature":"159340","num_nodes":"31","size_leaf_vector":"1"}},{"base_weights":[3.2568513E-3,3.6900002E-1,-3.202795E-1,5.573315E-1,-1.7956741E-2,-5.839931E-1,-8.58563E-2,-3.524716E-1,6.1540645E-1,-3.8399348E-1,5.185902E-1,-7.995239E-1,-4.2720765E-1,1.0409292E-1,-3.1291538E-1,2.7230864E-2,-4.8967835E-2,1.890955E-2,4.0820953E-2,-7.8063826E-3,-3.111336E-2,1.5034223E-2,4.3246184E-2,-2.879701E-2,-5.4071736E-2,-2.8890703E-2,-1.0094484E-2,-8.099121E-3,1.4923006E-2,-8.290912E-3,-3.3855595E-2],"categories":[],"categories_nodes":[],"categories_segments":[],"categories_sizes":[],"default_left":[0,1,0,0,0,0,1,0,0,1,0,1,0,0,1,0,0,0,0,0,0,0,0,0,0,0,0,0,0,0,0],"id":17,"left_children":[1,3,5,7,9,11,13,15,17,19,21,23,25,27,29,-1,-1,-1,-1,-1,-1,-1,-1,-1,-1,-1,-1,-1,-1,-1,-1],"loss_changes":[7.401095E2,2.146283E2,2.041464E2,1.0582837E2,1.9030368E2,4.971942E1,7.645066E1,7.103398E1,8.603027E1,3.0084969E1,2.713295E1,3.6055664E1,2.9701706E1,5.0120033E1,4.1835854E1,0E0,0E0,0E0,0E0,0E0,0E0,0E0,0E0,0E0,0E0,0E0,0E0,0E0,0E0,0E0,0E0],"parents":[2147483647,0,0,1,1,2,2,3,3,4,4,5,5,6,6,7,7,8,8,9,9,10,10,11,11,12,12,13,13,14,14],"right_children":[2,4,6,8,10,12,14,16,18,20,22,24,26,28,30,-1,-1,-1,-1,-1,-1,-1,-1,-1,-1,-1,-1,-1,-1,-1,-1],"split_conditions":[1.3733041E0,3.0268207E-3,9.904704E-1,1.3811809E-1,8.87977E-2,7.99795E-3,2.4607852E-3,1.3104038E0,7.663551E-2,3.1893115E-2,1.1104083E-1,5.5000007E-2,3.7737228E-3,9.666366E-2,1.9000001E-2,2.7230864E-2,-4.8967835E-2,1.890955E-2,4.0820953E-2,-7.8063826E-3,-3.111336E-2,1.5034223E-2,4.3246184E-2,-2.879701E-2,-5.4071736E-2,-2.8890703E-2,-1.0094484E-2,-8.099121E-3,1.4923006E-2,-8.290912E-3,-3.3855595E-2],"split_indices":[159330,125854,159337,103628,159328,52577,118998,159330,159328,27160,159328,8,152359,159331,78,0,0,0,0,0,0,0,0,0,0,0,0,0,0,0,0],"split_type":[0,0,0,0,0,0,0,0,0,0,0,0,0,0,0,0,0,0,0,0,0,0,0,0,0,0,0,0,0,0,0],"sum_hessian":[6.2441533E3,2.932023E3,3.3121306E3,1.9724274E3,9.595955E2,1.5531726E3,1.7589581E3,1.1579622E2,1.8566311E3,5.7239105E2,3.8720447E2,6.427363E2,9.104362E2,9.5682086E2,8.021372E2,4.7246387E1,6.8549835E1,8.6051605E2,9.9611505E2,2.9896146E2,2.734296E2,2.4517429E2,1.420302E2,3.6891324E2,2.7382312E2,5.383401E2,3.7209616E2,4.0208386E2,5.54737E2,5.785044E2,2.236328E2],"tree_param":{"num_deleted":"0","num_feature":"159340","num_nodes":"31","size_leaf_vector":"1"}},{"base_weights":[2.3562976E-3,-3.3275512E-1,3.2795125E-1,-1.8387686E-1,-7.299765E-1,6.144179E-1,7.390256E-2,1.5034905E-1,-4.067702E-1,-7.816697E-1,1.6196956E-1,-2.7957472E-1,6.8588424E-1,-2.149291E-1,5.067297E-1,1.2411607E-2,-3.7361335E-2,-2.417155E-2,2.0790048E-2,-2.9019741E-2,-5.0606012E-2,3.6008958E-2,-1.1468066E-2,-3.6529463E-2,3.2196995E-2,3.7586607E-2,9.365964E-5,1.0446584E-3,-2.2099989E-2,2.7633404E-2,-3.595118E-2],"categories":[],"categories_nodes":[],"categories_segments":[],"categories_sizes":[],"default_left":[1,1,0,0,1,0,0,1,1,1,1,0,1,1,1,0,0,0,0,0,0,0,0,0,0,0,0,0,0,0,0],"id":18,"left_children":[1,3,5,7,9,11,13,15,17,19,21,23,25,27,29,-1,-1,-1,-1,-1,-1,-1,-1,-1,-1,-1,-1,-1,-1,-1,-1],"loss_changes":[6.8498193E2,1.812833E2,2.3092593E2,1.687573E2,3.995987E1,9.686627E1,2.1284756E2,7.995186E1,8.6682175E1,3.2365326E1,1.2035861E1,4.9573696E1,6.169287E1,5.5047382E1,4.0202454E1,0E0,0E0,0E0,0E0,0E0,0E0,0E0,0E0,0E0,0E0,0E0,0E0,0E0,0E0,0E0,0E0],"parents":[2147483647,0,0,1,1,2,2,3,3,4,4,5,5,6,6,7,7,8,8,9,9,10,10,11,11,12,12,13,13,14,14],"right_children":[2,4,6,8,10,12,14,16,18,20,22,24,26,28,30,-1,-1,-1,-1,-1,-1,-1,-1,-1,-1,-1,-1,-1,-1,-1,-1],"split_conditions":[5.4028597E-2,4.246719E-2,8.780206E0,6.2112675E0,3.8344099E-3,1.1259398E-1,8.501339E-2,5.2078452E-2,4.3539575E-4,2.1193624E-2,1.5712783E-2,1.5746409E-1,5.006888E-2,7.754789E-4,4.406861E-3,1.2411607E-2,-3.7361335E-2,-2.417155E-2,2.0790048E-2,-2.9019741E-2,-5.0606012E-2,3.6008958E-2,-1.1468066E-2,-3.6529463E-2,3.2196995E-2,3.7586607E-2,9.365964E-5,1.0446584E-3,-2.2099989E-2,2.7633404E-2,-3.595118E-2],"split_indices":[159328,50192,159339,159339,52609,50348,159328,94190,52609,52608,48840,159328,52608,37855,159135,0,0,0,0,0,0,0,0,0,0,0,0,0,0,0,0],"split_type":[0,0,0,0,0,0,0,0,0,0,0,0,0,0,0,0,0,0,0,0,0,0,0,0,0,0,0,0,0,0,0],"sum_hessian":[6.267912E3,3.0872485E3,3.1806633E3,2.2527512E3,8.344973E2,1.4897664E3,1.6908971E3,9.001412E2,1.35261E3,7.9042706E2,4.4070267E1,1.081637E2,1.3816027E3,1.0142683E3,6.766288E2,8.158967E2,8.424445E1,1.2402959E3,1.1231414E2,4.336289E2,3.5679816E2,1.748405E1,2.6586216E1,7.410201E1,3.406168E1,1.2584939E3,1.2310873E2,4.9761282E2,5.166555E2,6.5561914E2,2.1009642E1],"tree_param":{"num_deleted":"0","num_feature":"159340","num_nodes":"31","size_leaf_vector":"1"}},{"base_weights":[-8.838738E-3,9.20985E-2,-6.4669263E-1,4.1592765E-1,-9.102519E-2,-3.922974E-1,-9.682315E-1,5.2965236E-1,-7.2046764E-2,2.4932902E-2,-4.3727332E-1,-5.6284326E-1,-4.8843484E-2,-1.0192938E0,4.40652E-1,2.9727984E-2,-3.453227E-4,8.814639E-3,-2.3425402E-2,5.0435686E-3,-1.9475117E-2,-1.7292144E-2,-4.3655913E-2,-3.218056E-2,1.6027546E-2,9.593645E-3,-2.4272833E-2,-5.263519E-2,1.6700663E-2,3.5401706E-2,-6.2906183E-3],"categories":[],"categories_nodes":[],"categories_segments":[],"categories_sizes":[],"default_left":[1,0,1,1,1,1,1,1,1,1,1,1,1,1,1,0,0,0,0,0,0,0,0,0,0,0,0,0,0,0,0],"id":19,"left_children":[1,3,5,7,9,11,13,15,17,19,21,23,25,27,29,-1,-1,-1,-1,-1,-1,-1,-1,-1,-1,-1,-1,-1,-1,-1,-1],"loss_changes":[4.0103287E2,3.189251E2,6.6365326E1,1.084433E2,1.3826201E2,2.7680046E1,2.9502472E1,5.5549408E1,3.7121593E1,8.090108E1,3.16792E1,2.4321404E1,1.8464489E1,1.8756317E1,3.4170845E0,0E0,0E0,0E0,0E0,0E0,0E0,0E0,0E0,0E0,0E0,0E0,0E0,0E0,0E0,0E0,0E0],"parents":[2147483647,0,0,1,1,2,2,3,3,4,4,5,5,6,6,7,7,8,8,9,9,10,10,11,11,12,12,13,13,14,14],"right_children":[2,4,6,8,10,12,14,16,18,20,22,24,26,28,30,-1,-1,-1,-1,-1,-1,-1,-1,-1,-1,-1,-1,-1,-1,-1,-1],"split_conditions":[5.6999996E-2,1.2968288E1,1.799015E-2,3.5164557E-2,3.3999994E-2,2.268E-2,9.046751E-3,2.0455262E-3,2.9713936E-2,4.275475E-2,3.0635424E-2,2.0212E-2,2.0543344E-2,7.047614E-2,3.411313E-2,2.9727984E-2,-3.453227E-4,8.814639E-3,-2.3425402E-2,5.0435686E-3,-1.9475117E-2,-1.7292144E-2,-4.3655913E-2,-3.218056E-2,1.6027546E-2,9.593645E-3,-2.4272833E-2,-5.263519E-2,1.6700663E-2,3.5401706E-2,-6.2906183E-3],"split_indices":[4,159338,50192,52608,114,5,156699,37855,50192,50192,105406,115,98176,136040,24892,0,0,0,0,0,0,0,0,0,0,0,0,0,0,0,0],"split_type":[0,0,0,0,0,0,0,0,0,0,0,0,0,0,0,0,0,0,0,0,0,0,0,0,0,0,0,0,0,0,0],"sum_hessian":[6.2106035E3,5.364421E3,8.461828E2,1.9374355E3,3.426985E3,4.803498E2,3.65833E2,1.5725645E3,3.6487112E2,2.568537E3,8.584481E2,3.1688937E2,1.634604E2,3.5505704E2,1.0775962E1,1.4040413E3,1.6852318E2,2.2450052E2,1.403706E2,2.1760142E3,3.9252295E2,7.189008E2,1.3954732E2,2.9262418E2,2.4265211E1,1.0569842E2,5.776198E1,3.483077E2,6.7493243E0,7.6708965E0,3.1050658E0],"tree_param":{"num_deleted":"0","num_feature":"159340","num_nodes":"31","size_leaf_vector":"1"}},{"base_weights":[4.0684664E-3,-3.270305E-1,2.0162344E-1,-1.8672502E-1,-9.121668E-1,3.8237378E-1,-2.0806323E-1,-7.3535554E-2,-5.813028E-1,-9.8675984E-1,-3.166753E-1,4.533348E-1,-3.239274E-1,-4.3434533E-1,1.7524697E-1,2.0716959E-3,-3.5980538E-2,-3.3550203E-2,1.0164809E-2,-1.4156812E-3,-5.1291447E-2,-2.6338978E-2,2.024941E-2,2.9236704E-2,6.1555603E-3,4.8157508E-3,-3.0540153E-2,-2.5149588E-2,2.2750644E-2,1.652923E-2,-1.2769394E-2],"categories":[],"categories_nodes":[],"categories_segments":[],"categories_sizes":[],"default_left":[0,1,1,1,1,1,0,1,1,0,1,0,1,0,0,0,0,0,0,0,0,0,0,0,0,0,0,0,0,0,0],"id":20,"left_children":[1,3,5,7,9,11,13,15,17,19,21,23,25,27,29,-1,-1,-1,-1,-1,-1,-1,-1,-1,-1,-1,-1,-1,-1,-1,-1],"loss_changes":[4.046201E2,1.8773466E2,2.8768872E2,8.270665E1,1.6865143E1,1.3587573E2,1.0372533E2,1.0941081E2,3.0318192E1,1.3437988E1,1.0028624E1,1.0529364E2,3.0654032E1,4.7005234E1,3.013762E1,0E0,0E0,0E0,0E0,0E0,0E0,0E0,0E0,0E0,0E0,0E0,0E0,0E0,0E0,0E0,0E0],"parents":[2147483647,0,0,1,1,2,2,3,3,4,4,5,5,6,6,7,7,8,8,9,9,10,10,11,11,12,12,13,13,14,14],"right_children":[2,4,6,8,10,12,14,16,18,20,22,24,26,28,30,-1,-1,-1,-1,-1,-1,-1,-1,-1,-1,-1,-1,-1,-1,-1,-1],"split_conditions":[1.15283616E-1,2.4001747E-2,3.7342405E0,4.1403897E-2,2.7268606E-3,4.3246664E-2,2.3371729E-1,4.3207463E-2,5.921258E-3,3.5890177E-2,4.606245E-2,3.9050002E0,2.6134538E-2,8.1176E-2,1.5406579E-2,2.0716959E-3,-3.5980538E-2,-3.3550203E-2,1.0164809E-2,-1.4156812E-3,-5.1291447E-2,-2.6338978E-2,2.024941E-2,2.9236704E-2,6.1555603E-3,4.8157508E-3,-3.0540153E-2,-2.5149588E-2,2.2750644E-2,1.652923E-2,-1.2769394E-2],"split_indices":[159331,54700,159324,50192,61801,52454,159331,94190,150407,65938,155690,2,50192,13,152182,0,0,0,0,0,0,0,0,0,0,0,0,0,0,0,0],"split_type":[0,0,0,0,0,0,0,0,0,0,0,0,0,0,0,0,0,0,0,0,0,0,0,0,0,0,0,0,0,0,0],"sum_hessian":[6.177759E3,2.305477E3,3.8722815E3,1.8662803E3,4.391969E2,2.688786E3,1.1834957E3,1.4568353E3,4.094449E2,3.8589413E2,5.3302788E1,2.446224E3,2.4256184E2,7.454011E2,4.3809457E2,1.2394127E3,2.1742268E2,3.6923016E2,4.021473E1,1.6454361E1,3.6943976E2,4.340255E1,9.900239E0,1.7449924E3,7.012317E2,9.833986E1,1.4422197E2,6.950493E2,5.0351807E1,3.245187E2,1.1357586E2],"tree_param":{"num_deleted":"0","num_feature":"159340","num_nodes":"31","size_leaf_vector":"1"}},{"base_weights":[-3.630456E-3,5.476264E-1,-1.7784368E-1,3.6989936E-1,9.1334647E-1,2.000869E-1,-3.8254386E-1,4.6837506E-1,-1.5072215E-1,9.921536E-1,-1.7018652E-2,6.0285115E-1,-6.873369E-2,-1.6435398E-1,-5.656419E-1,3.8467716E-2,9.306693E-3,-2.0389235E-2,1.1143651E-2,5.128438E-2,-0E0,-1.3940982E-2,3.1061426E-2,-2.6330784E-2,3.3110786E-2,4.575533E-3,-2.8858056E-2,7.171321E-3,-2.0185461E-2,-1.9453624E-2,-3.8217578E-2],"categories":[],"categories_nodes":[],"categories_segments":[],"categories_sizes":[],"default_left":[0,1,0,0,1,0,0,0,1,1,1,0,1,0,1,0,0,0,0,0,0,0,0,0,0,0,0,0,0,0,0],"id":21,"left_children":[1,3,5,7,9,11,13,15,17,19,21,23,25,27,29,-1,-1,-1,-1,-1,-1,-1,-1,-1,-1,-1,-1,-1,-1,-1,-1],"loss_changes":[5.931782E2,9.340674E1,3.639825E2,5.235501E1,3.6229767E1,1.7960641E2,1.2067645E2,7.058502E1,1.624741E1,1.4723389E1,7.4386106E0,4.6351303E1,8.171275E1,1.0379289E2,5.539673E1,0E0,0E0,0E0,0E0,0E0,0E0,0E0,0E0,0E0,0E0,0E0,0E0,0E0,0E0,0E0,0E0],"parents":[2147483647,0,0,1,1,2,2,3,3,4,4,5,5,6,6,7,7,8,8,9,9,10,10,11,11,12,12,13,13,14,14],"right_children":[2,4,6,8,10,12,14,16,18,20,22,24,26,28,30,-1,-1,-1,-1,-1,-1,-1,-1,-1,-1,-1,-1,-1,-1,-1,-1],"split_conditions":[1.3560255E0,7.823409E-4,1.9707441E1,2.0989246E1,3.2782815E-3,1.3823287E0,1.3775691E0,1.3406831E0,1.3338435E-2,6.609671E-2,3.1259812E-3,1.2213087E-1,3.9400005E-1,2.2336042E1,1.7292532E-3,3.8467716E-2,9.306693E-3,-2.0389235E-2,1.1143651E-2,5.128438E-2,-0E0,-1.3940982E-2,3.1061426E-2,-2.6330784E-2,3.3110786E-2,4.575533E-3,-2.8858056E-2,7.171321E-3,-2.0185461E-2,-1.9453624E-2,-3.8217578E-2],"split_indices":[159330,66141,159335,7,158999,159330,159330,159330,152042,52608,31361,71012,6,159335,52577,0,0,0,0,0,0,0,0,0,0,0,0,0,0,0,0],"split_type":[0,0,0,0,0,0,0,0,0,0,0,0,0,0,0,0,0,0,0,0,0,0,0,0,0,0,0,0,0,0,0],"sum_hessian":[6.1703887E3,1.4777953E3,4.6925933E3,1.00311066E3,4.746847E2,1.6470084E3,3.045585E3,8.4558966E2,1.5752094E2,4.3830093E2,3.6383762E1,6.582633E2,9.8874506E2,1.3964485E3,1.6491365E3,4.0332037E2,4.4226932E2,9.462837E1,6.2892567E1,4.2378323E2,1.4517697E1,2.890842E1,7.4753404E0,3.0064219E1,6.281991E2,7.534185E2,2.3532655E2,6.0995276E2,7.864958E2,8.83711E2,7.654254E2],"tree_param":{"num_deleted":"0","num_feature":"159340","num_nodes":"31","size_leaf_vector":"1"}},{"base_weights":[-8.331272E-3,-1.6774076E-1,5.2477974E-1,-5.570225E-2,-6.3804895E-1,4.0971276E-1,9.922119E-1,9.210362E-2,-3.480069E-1,-7.5779057E-1,-2.1100259E-1,6.532395E-1,1.9150876E-1,1.0387499E0,-3.306457E-2,-1.0296415E-2,1.426852E-2,9.941954E-3,-2.2883337E-2,-4.065261E-2,-3.976153E-3,2.1249885E-2,-2.123649E-2,3.4601677E-2,-6.389256E-2,1.4947869E-2,-1.688888E-2,5.3296007E-2,-1.3719723E-2],"categories":[],"categories_nodes":[],"categories_segments":[],"categories_sizes":[],"default_left":[1,1,1,1,0,1,1,1,0,1,0,1,1,1,0,0,0,0,0,0,0,0,0,0,0,0,0,0,0],"id":22,"left_children":[1,3,5,7,9,11,13,15,17,19,21,23,25,27,-1,-1,-1,-1,-1,-1,-1,-1,-1,-1,-1,-1,-1,-1,-1],"loss_changes":[5.2400745E2,2.4948006E2,7.288159E1,1.6650574E2,4.486133E1,5.957692E1,2.49776E1,1.4753497E2,7.83336E1,2.533783E1,2.9237495E1,4.41904E1,3.5450783E1,1.188913E1,0E0,0E0,0E0,0E0,0E0,0E0,0E0,0E0,0E0,0E0,0E0,0E0,0E0,0E0,0E0],"parents":[2147483647,0,0,1,1,2,2,3,3,4,4,5,5,6,6,7,7,8,8,9,9,10,10,11,11,12,12,13,13],"right_children":[2,4,6,8,10,12,14,16,18,20,22,24,26,28,-1,-1,-1,-1,-1,-1,-1,-1,-1,-1,-1,-1,-1,-1,-1],"split_conditions":[8.162345E-2,2.095797E-2,1.8422E-2,8.823E0,5.367115E-2,2E-3,5.018592E-3,3.8626157E-2,5.5649998E-3,1.4761034E-3,5.1986347E1,1.6427551E-3,2.800316E-3,5.0264766E-4,-3.306457E-2,-1.0296415E-2,1.426852E-2,9.941954E-3,-2.2883337E-2,-4.065261E-2,-3.976153E-3,2.1249885E-2,-2.123649E-2,3.4601677E-2,-6.389256E-2,1.4947869E-2,-1.688888E-2,5.3296007E-2,-1.3719723E-2],"split_indices":[159328,54700,5,0,159328,140,157145,159328,115,98157,159321,56821,154611,119307,0,0,0,0,0,0,0,0,0,0,0,0,0,0,0],"split_type":[0,0,0,0,0,0,0,0,0,0,0,0,0,0,0,0,0,0,0,0,0,0,0,0,0,0,0,0,0],"sum_hessian":[6.160052E3,4.7461675E3,1.4138843E3,3.8392793E3,9.068884E2,1.1438312E3,2.7005307E2,2.5499053E3,1.2893739E3,7.034348E2,2.0345364E2,5.3367334E2,6.101579E2,2.6505673E2,4.9963408E0,1.0009159E3,1.5489894E3,2.1316888E2,1.076205E3,6.481584E2,5.52764E1,4.8753544E1,1.5470009E2,5.2681604E2,6.857291E0,5.1057333E2,9.958456E1,2.61352E2,3.7047424E0],"tree_param":{"num_deleted":"0","num_feature":"159340","num_nodes":"29","size_leaf_vector":"1"}},{"base_weights":[-1.289824E-3,4.6663025E-1,-1.657085E-1,2.9845405E-1,8.028345E-1,-4.3146318E-1,5.1817566E-2,3.8044986E-1,-1.982777E-1,-8.330445E-2,8.6615443E-1,-9.565185E-2,-5.639751E-1,4.9371678E-1,-5.6772437E-2,3.6706883E-2,7.6863514E-3,3.1382628E-2,-2.3156403E-2,2.0985467E-2,-3.1782694E-2,4.5655325E-2,-2.1434514E-2,2.0265188E-2,-1.6908614E-2,-2.1344056E-2,-4.9338143E-2,4.0366437E-2,5.1361467E-3,1.8275589E-3,-3.465185E-2],"categories":[],"categories_nodes":[],"categories_segments":[],"categories_sizes":[],"default_left":[0,1,0,0,0,0,0,0,0,0,1,0,1,0,1,0,0,0,0,0,0,0,0,0,0,0,0,0,0,0,0],"id":23,"left_children":[1,3,5,7,9,11,13,15,17,19,21,23,25,27,29,-1,-1,-1,-1,-1,-1,-1,-1,-1,-1,-1,-1,-1,-1,-1,-1],"loss_changes":[4.723878E2,8.793933E1,2.6340613E2,4.42937E1,3.072522E1,9.027951E1,1.2070191E2,7.2728516E1,3.490896E1,1.2293289E1,3.2446533E1,7.206927E1,8.1485016E1,5.9512527E1,1.2026433E2,0E0,0E0,0E0,0E0,0E0,0E0,0E0,0E0,0E0,0E0,0E0,0E0,0E0,0E0,0E0,0E0],"parents":[2147483647,0,0,1,1,2,2,3,3,4,4,5,5,6,6,7,7,8,8,9,9,10,10,11,11,12,12,13,13,14,14],"right_children":[2,4,6,8,10,12,14,16,18,20,22,24,26,28,30,-1,-1,-1,-1,-1,-1,-1,-1,-1,-1,-1,-1,-1,-1,-1,-1],"split_conditions":[1.3582306E0,7.7346974E-4,9.905986E-1,2.1354082E1,1.1259398E-1,1.6697351E1,1.6496145E1,1.3384328E0,1.1727141E0,1.3222169E0,2.5170367E-2,1.3432325E0,2.3129832E-2,1.347271E0,4.2191744E-2,3.6706883E-2,7.6863514E-3,3.1382628E-2,-2.3156403E-2,2.0985467E-2,-3.1782694E-2,4.5655325E-2,-2.1434514E-2,2.0265188E-2,-1.6908614E-2,-2.1344056E-2,-4.9338143E-2,4.0366437E-2,5.1361467E-3,1.8275589E-3,-3.465185E-2],"split_indices":[159330,60009,159337,7,50348,159329,159329,159330,159333,159330,159285,159333,52454,159333,52454,0,0,0,0,0,0,0,0,0,0,0,0,0,0,0,0],"split_type":[0,0,0,0,0,0,0,0,0,0,0,0,0,0,0,0,0,0,0,0,0,0,0,0,0,0,0,0,0,0,0],"sum_hessian":[6.133992E3,1.5909697E3,4.5430225E3,1.0687648E3,5.222049E2,2.0446833E3,2.498339E3,9.2007166E2,1.4869316E2,3.3667652E1,4.8853726E2,5.831137E2,1.4615697E3,4.911432E2,2.0071959E3,3.5330878E2,5.667628E2,3.352409E1,1.1516907E2,1.7301634E1,1.6366018E1,4.7361014E2,1.4927109E1,1.8777077E2,3.9534293E2,1.1130603E3,3.4850937E2,2.6816736E2,2.2297583E2,1.7531893E3,2.5400662E2],"tree_param":{"num_deleted":"0","num_feature":"159340","num_nodes":"31","size_leaf_vector":"1"}},{"base_weights":[-7.933415E-3,2.2258055E-1,-2.307199E-1,-4.2584397E-2,5.8967155E-1,2.2974235E-1,-3.6556596E-1,6.836046E-2,-7.5202805E-1,6.734354E-1,-5.2253352E-3,1.0412291E-1,7.90445E-1,-2.9034853E-1,-8.15556E-1,1.0719643E-2,-2.0718196E-2,-5.103181E-2,-1.7337408E-2,3.696024E-2,-1.06702335E-2,-1.2328379E-2,4.1376542E-2,-1.1715911E-3,3.750707E-2,4.5020323E-2,-2.6120439E-3,1.137449E-2,-1.668404E-2,-4.421016E-2,1.596464E-2],"categories":[],"categories_nodes":[],"categories_segments":[],"categories_sizes":[],"default_left":[0,0,0,1,1,1,1,1,0,1,0,0,1,0,0,0,0,0,0,0,0,0,0,0,0,0,0,0,0,0,0],"id":24,"left_children":[1,3,5,7,9,11,13,15,17,19,21,23,25,27,29,-1,-1,-1,-1,-1,-1,-1,-1,-1,-1,-1,-1,-1,-1,-1,-1],"loss_changes":[3.1442258E2,2.9335938E2,1.939997E2,1.385935E2,6.3621246E1,4.8497856E1,7.9395905E1,1.0709354E2,2.2787872E1,6.597626E1,3.246964E1,4.9010643E1,1.2870529E1,4.7101044E1,2.8538895E1,0E0,0E0,0E0,0E0,0E0,0E0,0E0,0E0,0E0,0E0,0E0,0E0,0E0,0E0,0E0,0E0],"parents":[2147483647,0,0,1,1,2,2,3,3,4,4,5,5,6,6,7,7,8,8,9,9,10,10,11,11,12,12,13,13,14,14],"right_children":[2,4,6,8,10,12,14,16,18,20,22,24,26,28,30,-1,-1,-1,-1,-1,-1,-1,-1,-1,-1,-1,-1,-1,-1,-1,-1],"split_conditions":[3.7E-2,1.3348772E-1,1.2379894E0,2.7844355E-2,3.7830002E-3,1.0044E-2,2.315017E-2,3.8025588E-2,6.9105057E-3,4.5345087E-2,3.1237075E-1,2.9556286E-1,3.4846514E-3,1.9040002E-3,1.6787685E-1,1.0719643E-2,-2.0718196E-2,-5.103181E-2,-1.7337408E-2,3.696024E-2,-1.06702335E-2,-1.2328379E-2,4.1376542E-2,-1.1715911E-3,3.750707E-2,4.5020323E-2,-2.6120439E-3,1.137449E-2,-1.668404E-2,-4.421016E-2,1.596464E-2],"split_indices":[4,159331,159333,54700,83,95,54700,61800,54701,52454,159331,159331,19946,23,159331,0,0,0,0,0,0,0,0,0,0,0,0,0,0,0,0],"split_type":[0,0,0,0,0,0,0,0,0,0,0,0,0,0,0,0,0,0,0,0,0,0,0,0,0,0,0,0,0,0,0],"sum_hessian":[6.112325E3,3.00186E3,3.1104653E3,1.7438798E3,1.2579803E3,7.020892E2,2.4083762E3,1.5107352E3,2.3314452E2,1.1036086E3,1.5437166E2,5.798843E2,1.2220489E2,2.0724133E3,3.3596277E2,1.1635825E3,3.471527E2,1.3416473E2,9.897978E1,1.0292388E3,7.436995E1,1.23345215E2,3.1026451E1,4.8699838E2,9.288592E1,1.0884588E2,1.3359011E1,1.5660405E2,1.9158093E3,3.1867178E2,1.7291006E1],"tree_param":{"num_deleted":"0","num_feature":"159340","num_nodes":"31","size_leaf_vector":"1"}},{"base_weights":[5.757976E-3,-1.4200443E-1,4.908725E-1,6.4625256E-2,-3.7744787E-1,8.963622E-1,3.297755E-1,-1.7678148E-1,3.4226424E-1,6.319921E-1,-4.0673E-1,9.3113524E-1,-5.5680316E-2,-2.525904E-1,4.3544877E-1,3.1160333E-3,-1.8983493E-2,3.3866353E-2,6.8838336E-3,-1.652695E-2,4.1596495E-2,-1.5788255E-2,-3.8536098E-2,-9.86427E-3,4.8763074E-2,-2.1307338E-2,4.6828005E-2,1.4894051E-2,4.4675976E-2],"categories":[],"categories_nodes":[],"categories_segments":[],"categories_sizes":[],"default_left":[1,0,0,0,0,1,1,0,0,0,1,0,0,1,1,0,0,0,0,0,0,0,0,0,0,0,0,0,0],"id":25,"left_children":[1,3,5,7,9,11,13,15,17,19,21,23,-1,25,27,-1,-1,-1,-1,-1,-1,-1,-1,-1,-1,-1,-1,-1,-1],"loss_changes":[4.3662772E2,2.2733096E2,9.0223816E1,1.670856E2,6.558453E1,3.294577E1,6.398291E1,6.5009094E1,7.822502E1,1.3910643E1,6.807004E1,2.1468994E1,0E0,3.4416656E1,5.2504196E1,0E0,0E0,0E0,0E0,0E0,0E0,0E0,0E0,0E0,0E0,0E0,0E0,0E0,0E0],"parents":[2147483647,0,0,1,1,2,2,3,3,4,4,5,5,6,6,7,7,8,8,9,9,10,10,11,11,13,13,14,14],"right_children":[2,4,6,8,10,12,14,16,18,20,22,24,-1,26,28,-1,-1,-1,-1,-1,-1,-1,-1,-1,-1,-1,-1,-1,-1],"split_conditions":[8.060044E-2,8.780206E0,3.3246758E1,1.15283616E-1,5.1840004E-3,2.6907189E-2,4.35E-3,3.006252E1,3.1264519E1,5.810067E-4,4.246719E-2,1.557641E-1,-5.5680316E-2,1.3959621E-3,6.6743954E-4,3.1160333E-3,-1.8983493E-2,3.3866353E-2,6.8838336E-3,-1.652695E-2,4.1596495E-2,-1.5788255E-2,-3.8536098E-2,-9.86427E-3,4.8763074E-2,-2.1307338E-2,4.6828005E-2,1.4894051E-2,4.4675976E-2],"split_indices":[159328,159339,159332,159331,5,12063,39,159332,159332,114377,50192,43010,0,52577,31361,0,0,0,0,0,0,0,0,0,0,0,0,0,0],"split_type":[0,0,0,0,0,0,0,0,0,0,0,0,0,0,0,0,0,0,0,0,0,0,0,0,0,0,0,0,0],"sum_hessian":[6.0764736E3,4.6588853E3,1.417588E3,2.4809426E3,2.1779426E3,3.948078E2,1.0227802E3,1.326108E3,1.1548347E3,5.753342E1,2.1204094E3,3.912208E2,3.5870094E0,1.5456377E2,8.6821643E2,6.080554E2,7.1805255E2,4.315778E2,7.232569E2,8.473429E0,4.9059994E1,1.7061195E3,4.1428986E2,1.3216775E1,3.7800403E2,1.3841171E2,1.6152046E1,6.757191E2,1.9249738E2],"tree_param":{"num_deleted":"0","num_feature":"159340","num_nodes":"29","size_leaf_vector":"1"}},{"base_weights":[-2.6415964E-3,2.694109E-1,-2.4905774E-1,5.347682E-1,-1.929789E-2,6.454967E-2,-4.7609437E-1,-1.735222E-1,6.1489195E-1,6.630119E-1,-2.0900573E-1,2.7464902E-1,-2.906567E-1,-3.3002356E-1,-8.25787E-1,2.2720313E-2,-2.71323E-2,3.2179177E-2,-5.684514E-2,3.654111E-2,-8.19222E-3,-1.4830827E-2,7.237629E-3,2.6591882E-2,5.390919E-4,-5.3057554E-3,-3.256813E-2,-6.385678E-3,-2.8016893E-2,2.0896802E-3,-4.414464E-2],"categories":[],"categories_nodes":[],"categories_segments":[],"categories_sizes":[],"default_left":[0,0,0,0,0,1,1,0,1,0,0,0,1,0,0,0,0,0,0,0,0,0,0,0,0,0,0,0,0,0,0],"id":26,"left_children":[1,3,5,7,9,11,13,15,17,19,21,23,25,27,29,-1,-1,-1,-1,-1,-1,-1,-1,-1,-1,-1,-1,-1,-1,-1,-1],"loss_changes":[4.0492978E2,2.2036783E2,2.2638007E2,8.592871E1,1.7848833E2,9.996771E1,9.157782E1,3.7192417E1,7.087787E1,1.796614E1,3.3914936E1,5.6624382E1,3.1953144E1,5.9980392E1,2.7651398E1,0E0,0E0,0E0,0E0,0E0,0E0,0E0,0E0,0E0,0E0,0E0,0E0,0E0,0E0,0E0,0E0],"parents":[2147483647,0,0,1,1,2,2,3,3,4,4,5,5,6,6,7,7,8,8,9,9,10,10,11,11,12,12,13,13,14,14],"right_children":[2,4,6,8,10,12,14,16,18,20,22,24,26,28,30,-1,-1,-1,-1,-1,-1,-1,-1,-1,-1,-1,-1,-1,-1,-1,-1],"split_conditions":[1.3738141E0,5.700001E-2,1.9779688E1,3.0527455E-1,1.3399806E0,3.7E-2,2.1198288E-2,1.3104038E0,1.0808771E-1,1.8719999E-3,1.4036E-2,1.3891947E0,3.778365E-2,4.2999998E-2,1.3117338E-2,2.2720313E-2,-2.71323E-2,3.2179177E-2,-5.684514E-2,3.654111E-2,-8.19222E-3,-1.4830827E-2,7.237629E-3,2.6591882E-2,5.390919E-4,-5.3057554E-3,-3.256813E-2,-6.385678E-3,-2.8016893E-2,2.0896802E-3,-4.414464E-2],"split_indices":[159330,4,159335,106330,159330,4,50192,159330,50518,131,129,159330,52454,4,58324,0,0,0,0,0,0,0,0,0,0,0,0,0,0,0,0],"split_type":[0,0,0,0,0,0,0,0,0,0,0,0,0,0,0,0,0,0,0,0,0,0,0,0,0,0,0,0,0,0,0],"sum_hessian":[6.03059E3,2.8640493E3,3.1665408E3,1.4919625E3,1.3720867E3,1.3294017E3,1.8371389E3,1.4976207E2,1.3422004E3,2.9463748E2,1.0774492E3,8.3780286E2,4.915989E2,1.3047201E3,5.3241876E2,5.401355E1,9.574851E1,1.3242454E3,1.7955107E1,2.739602E2,2.0677294E1,8.6649097E2,2.1095828E2,4.1978003E2,4.1802286E2,3.313298E2,1.6026912E2,7.010375E2,6.036827E2,3.1881931E1,5.0053683E2],"tree_param":{"num_deleted":"0","num_feature":"159340","num_nodes":"31","size_leaf_vector":"1"}},{"base_weights":[5.8566225E-3,1.6401078E-1,-2.643285E-1,3.7023675E-1,-8.149702E-2,-1.3963549E-1,-6.334109E-1,3.9850497E-1,-1.227697E0,5.7564414E-1,-1.6173846E-1,-4.8830593E-3,-3.907976E-1,-6.7959815E-1,5.1085395E-1,2.553382E-2,4.3530096E-3,-7.171364E-2,5.9848274E-3,-3.1633884E-2,3.238475E-2,-3.800283E-3,-2.5991676E-2,9.779425E-3,-1.0632012E-2,-1.2787779E-2,-3.7521668E-2,-3.5753936E-2,4.1691277E-2,-7.780254E-3,4.0593915E-2],"categories":[],"categories_nodes":[],"categories_segments":[],"categories_sizes":[],"default_left":[0,0,1,1,0,0,1,1,1,0,1,1,1,0,0,0,0,0,0,0,0,0,0,0,0,0,0,0,0,0,0],"id":27,"left_children":[1,3,5,7,9,11,13,15,17,19,21,23,25,27,29,-1,-1,-1,-1,-1,-1,-1,-1,-1,-1,-1,-1,-1,-1,-1,-1],"loss_changes":[2.5737946E2,1.9298668E2,1.01069595E2,9.511929E1,9.169845E1,5.6105534E1,3.138533E1,7.03913E1,1.23581085E1,1.8507309E1,4.692034E1,4.5803566E1,2.6220322E1,3.181369E1,6.0339046E0,0E0,0E0,0E0,0E0,0E0,0E0,0E0,0E0,0E0,0E0,0E0,0E0,0E0,0E0,0E0,0E0],"parents":[2147483647,0,0,1,1,2,2,3,3,4,4,5,5,6,6,7,7,8,8,9,9,10,10,11,11,12,12,13,13,14,14],"right_children":[2,4,6,8,10,12,14,16,18,20,22,24,26,28,30,-1,-1,-1,-1,-1,-1,-1,-1,-1,-1,-1,-1,-1,-1,-1,-1],"split_conditions":[1.3310205E0,4.013E0,4.1724432E-2,1.00029565E-1,1.2040306E0,1.3606452E0,4.8278533E-3,3.3007536E-2,1.404E-3,3.3704594E-2,4.6324905E-2,1.3828047E-2,2.7891353E-2,1.5707188E2,3.218955E-2,2.553382E-2,4.3530096E-3,-7.171364E-2,5.9848274E-3,-3.1633884E-2,3.238475E-2,-3.800283E-3,-2.5991676E-2,9.779425E-3,-1.0632012E-2,-1.2787779E-2,-3.7521668E-2,-3.5753936E-2,4.1691277E-2,-7.780254E-3,4.0593915E-2],"split_indices":[159333,2,50192,50518,159333,159333,52609,50192,27,143740,123604,98176,54778,159327,85762,0,0,0,0,0,0,0,0,0,0,0,0,0,0,0,0],"split_type":[0,0,0,0,0,0,0,0,0,0,0,0,0,0,0,0,0,0,0,0,0,0,0,0,0,0,0,0,0,0,0],"sum_hessian":[6.015538E3,3.7980168E3,2.2175215E3,2.0649753E3,1.7330415E3,1.6647076E3,5.528137E2,2.0333827E3,3.1592627E1,1.8387296E2,1.5491686E3,1.0893389E3,5.7536884E2,5.341573E2,1.865646E1,1.4902411E3,5.4314154E2,2.7756859E1,3.835767E0,7.376801E0,1.7649615E2,1.2570642E3,2.9210434E2,5.5208954E2,5.372493E2,4.2654062E2,1.4882822E2,5.2514417E2,9.013138E0,5.5227256E0,1.3133735E1],"tree_param":{"num_deleted":"0","num_feature":"159340","num_nodes":"31","size_leaf_vector":"1"}},{"base_weights":[4.230957E-4,-2.1739113E-1,2.553205E-1,7.579579E-2,-3.9559576E-1,5.789118E-1,4.9148347E-2,3.664727E-1,-1.9022931E-1,-2.533609E-1,-7.7170205E-1,7.861876E-1,2.9546022E-1,-1.2524731E-1,2.8414965E-1,2.3002494E-2,-2.6136352E-2,-6.413789E-4,-2.2180382E-2,4.825471E-3,-1.8645952E-2,-2.840533E-2,-5.031645E-2,4.0897753E-2,-7.08539E-2,2.1510698E-2,-1.2930321E-2,-1.4826943E-2,1.8750794E-2,1.849036E-2,-2.782241E-2],"categories":[],"categories_nodes":[],"categories_segments":[],"categories_sizes":[],"default_left":[1,0,0,0,1,0,0,1,1,0,1,1,1,0,1,0,0,0,0,0,0,0,0,0,0,0,0,0,0,0,0],"id":28,"left_children":[1,3,5,7,9,11,13,15,17,19,21,23,25,27,29,-1,-1,-1,-1,-1,-1,-1,-1,-1,-1,-1,-1,-1,-1,-1,-1],"loss_changes":[3.3226477E2,1.6894324E2,1.8332059E2,9.494761E1,1.0544095E2,6.071173E1,6.971399E1,4.998398E1,2.8241173E1,6.180847E1,2.1685059E1,4.8163147E1,3.527002E1,8.383219E1,5.305075E1,0E0,0E0,0E0,0E0,0E0,0E0,0E0,0E0,0E0,0E0,0E0,0E0,0E0,0E0,0E0,0E0],"parents":[2147483647,0,0,1,1,2,2,3,3,4,4,5,5,6,6,7,7,8,8,9,9,10,10,11,11,12,12,13,13,14,14],"right_children":[2,4,6,8,10,12,14,16,18,20,22,24,26,28,30,-1,-1,-1,-1,-1,-1,-1,-1,-1,-1,-1,-1,-1,-1,-1,-1],"split_conditions":[5.7283618E-2,3.0129196E1,3.603471E1,1.3450298E0,2.2704588E-2,1.3046259E0,8.501339E-2,6.288395E-2,3.0299997E-1,1.0964799E1,4.2999983E-2,1.059132E-2,3.3782713E-2,2.0626573E-1,4.83E-3,2.3002494E-2,-2.6136352E-2,-6.413789E-4,-2.2180382E-2,4.825471E-3,-1.8645952E-2,-2.840533E-2,-5.031645E-2,4.0897753E-2,-7.08539E-2,2.1510698E-2,-1.2930321E-2,-1.4826943E-2,1.8750794E-2,1.849036E-2,-2.782241E-2],"split_indices":[159328,159332,159332,159333,51746,159333,159328,51746,6,159338,8,56237,51746,122612,83,0,0,0,0,0,0,0,0,0,0,0,0,0,0,0,0],"split_type":[0,0,0,0,0,0,0,0,0,0,0,0,0,0,0,0,0,0,0,0,0,0,0,0,0,0,0,0,0,0,0],"sum_hessian":[5.973884E3,3.219542E3,2.7543418E3,1.2160789E3,2.0034633E3,1.066523E3,1.6878188E3,5.820085E2,6.3407043E2,1.4617062E3,5.41757E2,6.088797E2,4.5764325E2,9.677366E2,7.2008234E2,5.297922E2,5.221628E1,3.7836185E2,2.557086E2,3.7039536E2,1.0913108E3,3.015009E2,2.4025615E2,6.037719E2,5.10775E0,3.704654E2,8.717786E1,7.2390466E2,2.4383191E2,6.5711206E2,6.2970238E1],"tree_param":{"num_deleted":"0","num_feature":"159340","num_nodes":"31","size_leaf_vector":"1"}},{"base_weights":[2.3150644E-3,9.997862E-2,-4.5616835E-1,3.6880633E-1,-2.8179709E-2,3.7237577E-2,-5.989319E-1,4.3232638E-1,-4.3902913E-1,6.732568E-2,-3.7020355E-1,1.7003414E-1,-5.787983E-1,-2.8289798E-1,-8.508421E-1,2.604927E-2,-6.5016137E-3,-8.573039E-5,-3.637116E-2,2.9517386E-2,-1.5596717E-3,-8.391969E-3,-3.9036717E-2,1.7060073E-2,-1.3981612E-2,2.2577601E-3,-4.3195244E-2,-1.7195283E-2,3.2333974E-2,-2.219449E-2,-4.9955644E-2],"categories":[],"categories_nodes":[],"categories_segments":[],"categories_sizes":[],"default_left":[1,0,0,1,1,1,1,1,0,0,1,1,0,1,0,0,0,0,0,0,0,0,0,0,0,0,0,0,0,0,0],"id":29,"left_children":[1,3,5,7,9,11,13,15,17,19,21,23,25,27,29,-1,-1,-1,-1,-1,-1,-1,-1,-1,-1,-1,-1,-1,-1,-1,-1],"loss_changes":[2.6769974E2,1.7048062E2,7.459837E1,8.287189E1,1.097003E2,1.960654E1,6.2612183E1,7.4714935E1,1.4111971E1,1.3549799E2,5.931362E1,1.60498E1,8.506917E0,2.1855207E1,2.3474945E1,0E0,0E0,0E0,0E0,0E0,0E0,0E0,0E0,0E0,0E0,0E0,0E0,0E0,0E0,0E0,0E0],"parents":[2147483647,0,0,1,1,2,2,3,3,4,4,5,5,6,6,7,7,8,8,9,9,10,10,11,11,12,12,13,13,14,14],"right_children":[2,4,6,8,10,12,14,16,18,20,22,24,26,28,30,-1,-1,-1,-1,-1,-1,-1,-1,-1,-1,-1,-1,-1,-1,-1,-1],"split_conditions":[4.8999995E-2,3.1648859E1,2.7127644E1,6.894475E-2,2.2160196E0,4.9769726E-2,3.0429044E-3,5.2998707E-2,1.1034198E0,4.0082983E-3,2.640429E-3,8.343384E-3,9.496868E-4,3.602892E-3,5.8E-2,2.604927E-2,-6.5016137E-3,-8.573039E-5,-3.637116E-2,2.9517386E-2,-1.5596717E-3,-8.391969E-3,-3.9036717E-2,1.7060073E-2,-1.3981612E-2,2.2577601E-3,-4.3195244E-2,-1.7195283E-2,3.2333974E-2,-2.219449E-2,-4.9955644E-2],"split_indices":[4,159332,159332,114900,159326,52608,54701,52608,159326,54701,54701,62344,76893,150721,4,0,0,0,0,0,0,0,0,0,0,0,0,0,0,0,0],"split_type":[0,0,0,0,0,0,0,0,0,0,0,0,0,0,0,0,0,0,0,0,0,0,0,0,0,0,0,0,0,0,0],"sum_hessian":[5.9763555E3,4.9318843E3,1.0444713E3,1.5916398E3,3.3402441E3,2.3364856E2,8.108228E2,1.4789149E3,1.1272495E2,2.6119778E3,7.282664E2,1.9652715E2,3.7121414E1,3.6610745E2,4.4471536E2,1.2793623E3,1.9955258E2,4.8173264E1,6.455169E1,4.1167123E2,2.2003066E3,4.9415915E2,2.3410728E2,1.4482779E2,5.169935E1,1.1862051E1,2.5259361E1,3.475255E2,1.8581944E1,1.258937E2,3.1882166E2],"tree_param":{"num_deleted":"0","num_feature":"159340","num_nodes":"31","size_leaf_vector":"1"}},{"base_weights":[3.975851E-3,7.200633E-2,-5.2478904E-1,2.817748E-1,-1.0830365E-1,1.256287E-1,-6.6669345E-1,3.5149384E-1,-3.397199E-1,4.364046E-2,-3.2343912E-1,-2.59927E-1,3.8309982E-1,-4.3281034E-1,-8.8258386E-1,1.9825827E-2,-2.5169125E-2,7.3150895E-4,-3.3048898E-2,4.9604797E-3,-2.1932468E-2,-1.1232735E-2,-3.248615E-2,1.3855149E-2,-2.6857737E-2,3.1789396E-2,-1.1188278E-2,-1.431226E-2,-4.2244505E-2,-0E0,-4.728647E-2],"categories":[],"categories_nodes":[],"categories_segments":[],"categories_sizes":[],"default_left":[1,0,0,1,1,0,1,1,1,1,1,1,1,0,0,0,0,0,0,0,0,0,0,0,0,0,0,0,0,0,0],"id":30,"left_children":[1,3,5,7,9,11,13,15,17,19,21,23,25,27,29,-1,-1,-1,-1,-1,-1,-1,-1,-1,-1,-1,-1,-1,-1,-1,-1],"loss_changes":[2.1308742E2,1.9931445E2,6.3262405E1,1.0615187E2,9.2865524E1,1.2914704E1,2.4857986E1,8.533618E1,2.878777E1,4.4377174E1,3.626213E1,8.598685E0,1.3058527E1,1.4510288E1,1.6480865E1,0E0,0E0,0E0,0E0,0E0,0E0,0E0,0E0,0E0,0E0,0E0,0E0,0E0,0E0,0E0,0E0],"parents":[2147483647,0,0,1,1,2,2,3,3,4,4,5,5,6,6,7,7,8,8,9,9,10,10,11,11,12,12,13,13,14,14],"right_children":[2,4,6,8,10,12,14,16,18,20,22,24,26,28,30,-1,-1,-1,-1,-1,-1,-1,-1,-1,-1,-1,-1,-1,-1,-1,-1],"split_conditions":[2.5617354E-2,2.0740482E1,1.7950066E1,3.24585E0,3.2999992E-2,1.1213997E-3,7.000001E-3,9.1303885E-4,2.862617E-3,3.3819042E-2,1.5362752E-2,1.3547841E-2,3.0690156E-2,2.5457397E0,1.8836029E-2,1.9825827E-2,-2.5169125E-2,7.3150895E-4,-3.3048898E-2,4.9604797E-3,-2.1932468E-2,-1.1232735E-2,-3.248615E-2,1.3855149E-2,-2.6857737E-2,3.1789396E-2,-1.1188278E-2,-1.431226E-2,-4.2244505E-2,-0E0,-4.728647E-2],"split_indices":[52576,159335,159335,159326,32,127409,68,1256,54701,52608,52608,14090,52608,159326,52608,0,0,0,0,0,0,0,0,0,0,0,0,0,0,0,0],"split_type":[0,0,0,0,0,0,0,0,0,0,0,0,0,0,0,0,0,0,0,0,0,0,0,0,0,0,0,0,0,0,0],"sum_hessian":[5.926016E3,5.255994E3,6.700218E2,2.4307954E3,2.8251987E3,1.1884111E2,5.511807E2,2.189014E3,2.4178154E2,1.6553848E3,1.169814E3,4.601033E1,7.283078E1,2.740004E2,2.771803E2,2.0831536E3,1.0586023E2,1.1575853E2,1.2602301E2,1.4897783E3,1.6560641E2,9.067863E2,2.6302768E2,1.4437644E1,3.1572687E1,5.2415436E1,2.0415348E1,2.1015431E2,6.3846085E1,1.7997196E1,2.591831E2],"tree_param":{"num_deleted":"0","num_feature":"159340","num_nodes":"31","size_leaf_vector":"1"}},{"base_weights":[-7.994368E-3,3.83508E-1,-1.4202908E-1,2.5195256E-1,8.206925E-1,-3.1237923E-2,-4.6094164E-1,-2.0606934E-1,3.3697176E-1,-4.4465262E-1,8.648701E-1,5.8892164E-2,-3.3354467E-1,-1.752159E-1,-5.975275E-1,2.9784397E-3,-3.3807192E-2,3.2674484E-2,5.7223523E-3,-4.1173182E-2,8.44608E-3,4.8880726E-2,8.134422E-3,8.213914E-3,-2.2562165E-2,-1.1130545E-2,-4.121704E-2,-1.822614E-2,1.4948741E-2,-2.0633977E-2,-4.1425116E-2],"categories":[],"categories_nodes":[],"categories_segments":[],"categories_sizes":[],"default_left":[0,1,1,1,0,1,0,0,0,1,1,1,1,0,1,0,0,0,0,0,0,0,0,0,0,0,0,0,0,0,0],"id":31,"left_children":[1,3,5,7,9,11,13,15,17,19,21,23,25,27,29,-1,-1,-1,-1,-1,-1,-1,-1,-1,-1,-1,-1,-1,-1,-1,-1],"loss_changes":[3.1225394E2,8.513896E1,1.5624254E2,4.6234604E1,2.1735367E1,9.032697E1,4.3254715E1,2.394703E1,6.892534E1,4.660266E0,2.4796783E1,1.3690091E2,3.9497833E1,3.4601234E1,2.983554E1,0E0,0E0,0E0,0E0,0E0,0E0,0E0,0E0,0E0,0E0,0E0,0E0,0E0,0E0,0E0,0E0],"parents":[2147483647,0,0,1,1,2,2,3,3,4,4,5,5,6,6,7,7,8,8,9,9,10,10,11,11,12,12,13,13,14,14],"right_children":[2,4,6,8,10,12,14,16,18,20,22,24,26,28,30,-1,-1,-1,-1,-1,-1,-1,-1,-1,-1,-1,-1,-1,-1,-1,-1],"split_conditions":[1.3582306E0,2.2881888E-3,3.6899996E-1,3.776E-3,8.715298E-3,2.4E-2,1.3793906E0,1.3104038E0,1.3399806E0,7.865187E-3,3.3782713E-2,7.519178E-4,3.7248E-2,3.3699495E-3,5.022675E-3,2.9784397E-3,-3.3807192E-2,3.2674484E-2,5.7223523E-3,-4.1173182E-2,8.44608E-3,4.8880726E-2,8.134422E-3,8.213914E-3,-2.2562165E-2,-1.1130545E-2,-4.121704E-2,-1.822614E-2,1.4948741E-2,-2.0633977E-2,-4.1425116E-2],"split_indices":[159330,31361,6,39,71013,54,159330,159330,159330,77842,51746,122291,51746,158361,51746,0,0,0,0,0,0,0,0,0,0,0,0,0,0,0,0],"split_type":[0,0,0,0,0,0,0,0,0,0,0,0,0,0,0,0,0,0,0,0,0,0,0,0,0,0,0,0,0,0,0],"sum_hessian":[5.94495E3,1.5119432E3,4.433007E3,1.1700317E3,3.4191147E2,3.2964395E3,1.1365673E3,1.8022562E2,9.8980615E2,9.241876E0,3.326696E2,2.5399067E3,7.565327E2,3.736531E2,7.629141E2,1.1658355E2,6.364206E1,4.027539E2,5.870523E2,5.664262E0,3.5776136E0,2.8372797E2,4.894163E1,2.1094724E3,4.3043436E2,6.2464966E2,1.3188307E2,2.6937726E2,1.0427584E2,4.3391614E2,3.2899802E2],"tree_param":{"num_deleted":"0","num_feature":"159340","num_nodes":"31","size_leaf_vector":"1"}},{"base_weights":[8.84448E-3,-2.4105373E-1,2.0800525E-1,-5.6385794E-3,-4.3804368E-1,4.569372E-1,3.7841555E-3,1.4101245E-1,-4.775917E-1,-3.5614598E-1,-8.8049185E-1,-2.7408248E-1,5.442169E-1,-1.7670007E-1,4.252128E-1,1.54237375E-2,-1.6661633E-2,-1.3373153E-2,-4.4020906E-2,-1.4069322E-2,-3.5268214E-2,-4.6546575E-2,8.817515E-3,-2.9489672E-2,2.207366E-2,3.159414E-2,4.1825953E-3,5.639784E-3,-1.5668396E-2,2.3444295E-2,-3.389914E-2],"categories":[],"categories_nodes":[],"categories_segments":[],"categories_sizes":[],"default_left":[0,0,0,1,1,0,0,1,1,1,0,0,1,1,1,0,0,0,0,0,0,0,0,0,0,0,0,0,0,0,0],"id":32,"left_children":[1,3,5,7,9,11,13,15,17,19,21,23,25,27,29,-1,-1,-1,-1,-1,-1,-1,-1,-1,-1,-1,-1,-1,-1,-1,-1],"loss_changes":[2.9408243E2,1.2098746E2,1.6682071E2,8.375599E1,4.8771576E1,9.549338E1,1.3867085E2,7.340055E1,2.1996094E1,2.964598E1,1.3143585E1,3.760494E1,5.254727E1,5.0727425E1,2.7751266E1,0E0,0E0,0E0,0E0,0E0,0E0,0E0,0E0,0E0,0E0,0E0,0E0,0E0,0E0,0E0,0E0],"parents":[2147483647,0,0,1,1,2,2,3,3,4,4,5,5,6,6,7,7,8,8,9,9,10,10,11,11,12,12,13,13,14,14],"right_children":[2,4,6,8,10,12,14,16,18,20,22,24,26,28,30,-1,-1,-1,-1,-1,-1,-1,-1,-1,-1,-1,-1,-1,-1,-1,-1],"split_conditions":[4.959229E-2,2.8000005E-2,3.899999E-2,3.9400005E-1,2.7008895E-2,1.2968437E-1,9.019626E-2,1.8273525E-2,7.6000005E-2,4.0292263E-2,8.019E-3,1.4582428E-1,2.0241372E-2,4.7628395E-3,6.75E-4,1.54237375E-2,-1.6661633E-2,-1.3373153E-2,-4.4020906E-2,-1.4069322E-2,-3.5268214E-2,-4.6546575E-2,8.817515E-3,-2.9489672E-2,2.207366E-2,3.159414E-2,4.1825953E-3,5.639784E-3,-1.5668396E-2,2.3444295E-2,-3.389914E-2],"split_indices":[159328,4,4,6,54700,25370,159328,54700,8,114900,55,159328,54700,123604,51,0,0,0,0,0,0,0,0,0,0,0,0,0,0,0,0],"split_type":[0,0,0,0,0,0,0,0,0,0,0,0,0,0,0,0,0,0,0,0,0,0,0,0,0,0,0,0,0,0,0],"sum_hessian":[5.8994653E3,2.6137605E3,3.285705E3,1.1954015E3,1.4183591E3,1.4757635E3,1.8099415E3,9.130688E2,2.8233264E2,1.2063475E3,2.120115E2,1.5504129E2,1.3207222E3,1.2676002E3,5.423414E2,6.77641E2,2.3542776E2,1.9264464E2,8.968802E1,1.003429E3,2.0291856E2,2.038255E2,8.186009E0,1.0915653E2,4.588476E1,1.1061433E3,2.1457893E2,4.0444452E2,8.6315564E2,5.253262E2,1.7015173E1],"tree_param":{"num_deleted":"0","num_feature":"159340","num_nodes":"31","size_leaf_vector":"1"}},{"base_weights":[-1.3863289E-2,3.76678E-1,-1.465959E-1,4.5493904E-1,-2.5938946E-1,5.7649136E-2,-3.8975793E-1,5.4065746E-1,-1.06607735E-1,3.7183973E-1,-5.46435E-1,1.936027E-1,-4.3002912E-1,-3.2414314E-1,-8.190813E-1,3.941418E-2,1.6699811E-2,-2.8152665E-2,1.1925973E-2,-6.9326223E-3,3.7689906E-2,4.1275336E-3,-4.0539525E-2,-5.4126E-3,1.9806199E-2,-3.5356194E-2,-1.8766854E-3,1.3923193E-2,-1.7853929E-2,-4.4436935E-2,1.1065189E-2],"categories":[],"categories_nodes":[],"categories_segments":[],"categories_sizes":[],"default_left":[0,1,0,1,0,1,1,0,0,0,1,0,0,0,1,0,0,0,0,0,0,0,0,0,0,0,0,0,0,0,0],"id":33,"left_children":[1,3,5,7,9,11,13,15,17,19,21,23,25,27,29,-1,-1,-1,-1,-1,-1,-1,-1,-1,-1,-1,-1,-1,-1,-1,-1],"loss_changes":[3.0525537E2,7.510495E1,2.1896017E2,6.486807E1,3.115118E1,1.5886537E2,5.4191315E1,5.684781E1,2.9212067E1,1.1584053E1,2.0480408E1,1.15227135E2,5.586348E1,3.5408905E1,2.0592056E1,0E0,0E0,0E0,0E0,0E0,0E0,0E0,0E0,0E0,0E0,0E0,0E0,0E0,0E0,0E0,0E0],"parents":[2147483647,0,0,1,1,2,2,3,3,4,4,5,5,6,6,7,7,8,8,9,9,10,10,11,11,12,12,13,13,14,14],"right_children":[2,4,6,8,10,12,14,16,18,20,22,24,26,28,30,-1,-1,-1,-1,-1,-1,-1,-1,-1,-1,-1,-1,-1,-1,-1,-1],"split_conditions":[1.3582306E0,3.1876083E-2,3.9000005E-2,1.3205912E-3,1.3399806E0,2.095797E-2,2.4471782E-2,9.194558E-2,2.067835E-1,3.3079047E-2,8.000005E-3,1.0239359E-1,7.0048566E-3,4.1652203E-2,8.195476E-3,3.941418E-2,1.6699811E-2,-2.8152665E-2,1.1925973E-2,-6.9326223E-3,3.7689906E-2,4.1275336E-3,-4.0539525E-2,-5.4126E-3,1.9806199E-2,-3.5356194E-2,-1.8766854E-3,1.3923193E-2,-1.7853929E-2,-4.4436935E-2,1.1065189E-2],"split_indices":[159330,136734,4,25370,159330,54700,54700,29436,159331,156102,22,159331,54701,57563,50193,0,0,0,0,0,0,0,0,0,0,0,0,0,0,0,0],"split_type":[0,0,0,0,0,0,0,0,0,0,0,0,0,0,0,0,0,0,0,0,0,0,0,0,0,0,0,0,0,0,0],"sum_hessian":[5.882803E3,1.487978E3,4.394825E3,1.3276246E3,1.603535E2,2.3883892E3,2.006436E3,1.1535112E3,1.741133E2,4.857455E1,1.11778946E2,1.8716746E3,5.1671454E2,1.7500717E3,2.5636438E2,5.161446E2,6.373667E2,7.485484E1,9.925845E1,2.103196E1,2.754259E1,3.2975533E1,7.880341E1,7.5048236E2,1.1211923E3,2.9904105E2,2.1767348E2,8.7188034E1,1.6628835E3,2.4186092E2,1.45034485E1],"tree_param":{"num_deleted":"0","num_feature":"159340","num_nodes":"31","size_leaf_vector":"1"}},{"base_weights":[-3.0188942E-3,-1.6751677E-1,2.7156392E-1,-2.3954622E-1,4.2779747E-1,5.362222E-1,8.372664E-2,-6.903772E-2,-4.3270317E-1,7.360904E-1,-0E0,-5.9270494E-2,6.8902194E-1,-7.4717715E-2,5.4775834E-1,-1.3151481E-2,5.840746E-3,-1.6583784E-2,-3.779503E-2,4.5473143E-2,1.4263818E-2,-1.3492517E-2,3.2788936E-2,3.1291094E-2,-1.4445341E-2,-3.4568388E-2,3.6319908E-2,2.935507E-3,-1.5937926E-2,3.2616984E-2,-2.404115E-2],"categories":[],"categories_nodes":[],"categories_segments":[],"categories_sizes":[],"default_left":[1,1,0,0,1,1,0,1,1,1,0,1,0,1,1,0,0,0,0,0,0,0,0,0,0,0,0,0,0,0,0],"id":34,"left_children":[1,3,5,7,9,11,13,15,17,19,21,23,25,27,29,-1,-1,-1,-1,-1,-1,-1,-1,-1,-1,-1,-1,-1,-1,-1,-1],"loss_changes":[2.647153E2,1.5763705E2,1.082375E2,1.07289505E2,5.163685E1,8.342911E1,9.563433E1,6.337435E1,4.771222E1,1.5417908E1,3.1672646E1,3.0241777E1,3.9905273E1,3.1794388E1,3.7340096E1,0E0,0E0,0E0,0E0,0E0,0E0,0E0,0E0,0E0,0E0,0E0,0E0,0E0,0E0,0E0,0E0],"parents":[2147483647,0,0,1,1,2,2,3,3,4,4,5,5,6,6,7,7,8,8,9,9,10,10,11,11,12,12,13,13,14,14],"right_children":[2,4,6,8,10,12,14,16,18,20,22,24,26,28,30,-1,-1,-1,-1,-1,-1,-1,-1,-1,-1,-1,-1,-1,-1,-1,-1],"split_conditions":[6.468424E-2,5.4431567E-4,3.899999E-2,3.7E-2,2.6908148E-2,3.36E-3,1.022281E-1,3.8626157E-2,4.1403897E-2,2.191706E-2,4.7584297E-3,1.4197156E-3,2.336864E-1,2E-2,2.2221925E-3,-1.3151481E-2,5.840746E-3,-1.6583784E-2,-3.779503E-2,4.5473143E-2,1.4263818E-2,-1.3492517E-2,3.2788936E-2,3.1291094E-2,-1.4445341E-2,-3.4568388E-2,3.6319908E-2,2.935507E-3,-1.5937926E-2,3.2616984E-2,-2.404115E-2],"split_indices":[159328,52609,4,4,50192,39,159328,159328,50192,56196,52609,158998,42692,22,154611,0,0,0,0,0,0,0,0,0,0,0,0,0,0,0,0],"split_type":[0,0,0,0,0,0,0,0,0,0,0,0,0,0,0,0,0,0,0,0,0,0,0,0,0,0,0,0,0,0,0],"sum_hessian":[5.8529116E3,3.6636643E3,2.1892473E3,3.2723923E3,3.91272E2,9.027278E2,1.2865197E3,1.7444502E3,1.5279421E3,2.2414764E2,1.6712437E2,1.8362367E2,7.191041E2,9.60571E2,3.259486E2,8.55152E2,8.892982E2,1.1741444E3,3.5379776E2,1.5661292E2,6.753473E1,1.1956783E2,4.7556538E1,4.2838646E1,1.4078503E2,1.5945791E1,7.031583E2,6.2083344E2,3.3973755E2,2.9840894E2,2.753969E1],"tree_param":{"num_deleted":"0","num_feature":"159340","num_nodes":"31","size_leaf_vector":"1"}},{"base_weights":[5.221406E-4,2.094334E-1,-1.8634391E-1,4.1688123E-1,-1.0051763E-2,-2.0587062E-2,-4.4818062E-1,-3.222697E-1,5.148026E-1,5.398423E-1,-1.4282529E-1,1.3098052E-1,-3.831372E-1,-7.3040295E-1,-3.226614E-1,1.6293814E-2,-3.173501E-2,3.067604E-2,3.116455E-3,2.9922986E-2,-4.0222775E-2,-1.6967756E-3,-2.1628588E-2,9.818423E-3,-3.874473E-2,-1.09071275E-2,-3.4297317E-2,-4.0081557E-2,1.7673591E-2,-1.7465651E-2,4.442672E-2],"categories":[],"categories_nodes":[],"categories_segments":[],"categories_sizes":[],"default_left":[0,0,0,0,0,0,0,0,1,1,1,1,1,0,1,0,0,0,0,0,0,0,0,0,0,0,0,0,0,0,0],"id":35,"left_children":[1,3,5,7,9,11,13,15,17,19,21,23,25,27,29,-1,-1,-1,-1,-1,-1,-1,-1,-1,-1,-1,-1,-1,-1,-1,-1],"loss_changes":[2.2876466E2,1.2650656E2,1.3361078E2,1.0423489E2,9.8409256E1,1.04907684E2,4.0114914E1,3.5504105E1,5.5517273E1,2.282772E1,3.3889793E1,7.9650536E1,2.6493721E1,2.978003E1,2.8089996E1,0E0,0E0,0E0,0E0,0E0,0E0,0E0,0E0,0E0,0E0,0E0,0E0,0E0,0E0,0E0,0E0],"parents":[2147483647,0,0,1,1,2,2,3,3,4,4,5,5,6,6,7,7,8,8,9,9,10,10,11,11,12,12,13,13,14,14],"right_children":[2,4,6,8,10,12,14,16,18,20,22,24,26,28,30,-1,-1,-1,-1,-1,-1,-1,-1,-1,-1,-1,-1,-1,-1,-1,-1],"split_conditions":[1.3740484E0,5.700001E-2,4.2000003E-2,1.4699358E-1,1.3392342E0,3.3299994E-1,6.444356E-3,1.3104038E0,3.408058E-2,8.8400004E-4,2.2E-2,5.2078452E-2,1.8395048E-2,2.9693283E2,6.120879E-2,1.6293814E-2,-3.173501E-2,3.067604E-2,3.116455E-3,2.9922986E-2,-4.0222775E-2,-1.6967756E-3,-2.1628588E-2,9.818423E-3,-3.874473E-2,-1.09071275E-2,-3.4297317E-2,-4.0081557E-2,1.7673591E-2,-1.7465651E-2,4.442672E-2],"split_indices":[159330,4,4,25370,159330,6,54701,159330,52608,51,72,94190,50192,159323,24386,0,0,0,0,0,0,0,0,0,0,0,0,0,0,0,0],"split_type":[0,0,0,0,0,0,0,0,0,0,0,0,0,0,0,0,0,0,0,0,0,0,0,0,0,0,0,0,0,0,0],"sum_hessian":[5.8493975E3,2.7640315E3,3.0853662E3,1.4210121E3,1.3430195E3,1.8949636E3,1.1904025E3,1.6369635E2,1.2573157E3,2.5676056E2,1.0862589E3,1.3366144E3,5.583492E2,3.5658362E2,8.3381885E2,5.2131714E1,1.1156463E2,1.0288558E3,2.2845993E2,2.4940341E2,7.3571434E0,7.961095E2,2.9014944E2,1.2513121E3,8.5302246E1,3.6912485E2,1.8922435E2,3.3668274E2,1.990088E1,8.2015546E2,1.3663395E1],"tree_param":{"num_deleted":"0","num_feature":"159340","num_nodes":"31","size_leaf_vector":"1"}},{"base_weights":[5.720335E-4,2.9652387E-1,-1.2900762E-1,6.861232E-1,1.4738254E-1,-3.489641E-1,2.8354637E-2,7.216045E-1,-6.554691E-2,7.569767E-1,7.4174784E-2,-5.9323986E-3,-4.543015E-1,2.9321265E-1,-1.3063872E-1,3.6986053E-3,3.9958004E-2,4.1370984E-2,-1.0386321E-2,9.070952E-3,-1.6843848E-2,4.889498E-3,-2.2537453E-2,1.3038628E-2,-2.4686705E-2,2.19925E-2,-4.6681357E-3,2.2710217E-5,-2.395832E-2],"categories":[],"categories_nodes":[],"categories_segments":[],"categories_sizes":[],"default_left":[0,0,0,1,0,0,0,0,0,1,1,1,0,1,1,0,0,0,0,0,0,0,0,0,0,0,0,0,0],"id":36,"left_children":[1,3,5,7,9,11,13,15,-1,17,19,21,23,25,27,-1,-1,-1,-1,-1,-1,-1,-1,-1,-1,-1,-1,-1,-1],"loss_changes":[2.2368959E2,1.01927E2,1.4059946E2,3.8773987E1,5.6611008E1,6.068918E1,9.9891205E1,2.31391E1,0E0,1.0766823E1,5.1364784E1,1.9257263E1,3.7327362E1,5.103459E1,6.8015305E1,0E0,0E0,0E0,0E0,0E0,0E0,0E0,0E0,0E0,0E0,0E0,0E0,0E0,0E0],"parents":[2147483647,0,0,1,1,2,2,3,3,4,4,5,5,6,6,7,7,9,9,10,10,11,11,12,12,13,13,14,14],"right_children":[2,4,6,8,10,12,14,16,-1,18,20,22,24,26,28,-1,-1,-1,-1,-1,-1,-1,-1,-1,-1,-1,-1,-1,-1],"split_conditions":[1.3627383E0,3.3966972E1,9.8951817E-1,1.059132E-2,4.7798757E-2,2.8052948E1,3.1021534E1,8.9887924E-2,-6.554691E-2,3.495418E-2,2.1000002E-2,3.400373E-2,3.9649997E-3,3.8182996E-2,1.8E-2,3.6986053E-3,3.9958004E-2,4.1370984E-2,-1.0386321E-2,9.070952E-3,-1.6843848E-2,4.889498E-3,-2.2537453E-2,1.3038628E-2,-2.4686705E-2,2.19925E-2,-4.6681357E-3,2.2710217E-5,-2.395832E-2],"split_indices":[159330,159332,159337,56237,92338,159332,159332,120120,0,68044,20,102822,115,88984,78,0,0,0,0,0,0,0,0,0,0,0,0,0,0],"split_type":[0,0,0,0,0,0,0,0,0,0,0,0,0,0,0,0,0,0,0,0,0,0,0,0,0,0,0,0,0],"sum_hessian":[5.8185894E3,1.7722216E3,4.046368E3,4.8377E2,1.2884515E3,1.6876649E3,2.358703E3,4.789546E2,4.815397E0,1.3167186E2,1.1567797E3,3.9996204E2,1.2877029E3,8.855628E2,1.4731401E3,5.3645706E1,4.253089E2,1.2434059E2,7.3312726E0,9.2156696E2,2.3521272E2,3.2567404E2,7.428801E1,6.45067E1,1.2231962E3,6.434025E2,2.4216028E2,1.0720359E3,4.011043E2],"tree_param":{"num_deleted":"0","num_feature":"159340","num_nodes":"29","size_leaf_vector":"1"}},{"base_weights":[1.7659542E-3,7.423556E-2,-4.1530606E-1,2.748232E-1,-8.501347E-2,-5.557313E-2,-5.74314E-1,3.0009523E-1,-6.634191E-2,1.2080553E-2,-3.5243997E-1,1.6352285E-1,-5.971176E-1,-1.6064006E-1,-7.724424E-1,1.9034384E-2,-8.534655E-3,3.2331694E-3,-2.6711112E-2,-3.0481622E-2,-9.134892E-3,1.6611205E-2,-1.2738724E-2,-3.9137296E-2,8.836658E-3,8.569299E-3,-2.2951849E-2,-4.3218113E-2,-4.65693E-3],"categories":[],"categories_nodes":[],"categories_segments":[],"categories_sizes":[],"default_left":[1,0,0,1,1,0,0,1,0,1,0,0,0,0,1,0,0,0,0,0,0,0,0,0,0,0,0,0,0],"id":37,"left_children":[1,3,5,7,9,11,13,15,-1,17,19,21,23,25,27,-1,-1,-1,-1,-1,-1,-1,-1,-1,-1,-1,-1,-1,-1],"loss_changes":[1.755378E2,1.5872987E2,4.8367203E1,8.996683E1,7.217364E1,3.306241E1,4.7089386E1,8.284505E1,0E0,5.8048645E1,3.093795E1,1.4294413E1,1.2849312E1,2.0510574E1,2.351323E1,0E0,0E0,0E0,0E0,0E0,0E0,0E0,0E0,0E0,0E0,0E0,0E0,0E0,0E0],"parents":[2147483647,0,0,1,1,2,2,3,3,4,4,5,5,6,6,7,7,9,9,10,10,11,11,12,12,13,13,14,14],"right_children":[2,4,6,8,10,12,14,16,-1,18,20,22,24,26,28,-1,-1,-1,-1,-1,-1,-1,-1,-1,-1,-1,-1,-1,-1],"split_conditions":[2.1911275E-2,2.0574085E1,3.8556E-2,7.467545E-2,1.8E-2,2.1859365E1,1.905083E1,5.8E-2,-6.634191E-2,3.796437E-2,7.9112366E-2,3.590002E-1,5.811945E-2,2.977067E-2,1.0677635E-3,1.9034384E-2,-8.534655E-3,3.2331694E-3,-2.6711112E-2,-3.0481622E-2,-9.134892E-3,1.6611205E-2,-1.2738724E-2,-3.9137296E-2,8.836658E-3,8.569299E-3,-2.2951849E-2,-4.3218113E-2,-4.65693E-3],"split_indices":[54700,159335,33,45034,26,159335,159335,4,0,131442,97482,6,151310,54700,52609,0,0,0,0,0,0,0,0,0,0,0,0,0,0],"split_type":[0,0,0,0,0,0,0,0,0,0,0,0,0,0,0,0,0,0,0,0,0,0,0,0,0,0,0,0,0],"sum_hessian":[5.808878E3,4.954501E3,8.543766E2,2.1938333E3,2.760668E3,2.658853E2,5.884913E2,2.1643699E3,2.946327E1,2.026093E3,7.3457495E2,1.9046953E2,7.541579E1,1.9514584E2,3.9334543E2,1.850646E3,3.1372385E2,1.8538907E3,1.7220235E2,2.845608E2,4.5001413E2,1.3816603E2,5.2303497E1,6.1821136E1,1.3594647E1,9.178912E1,1.0335672E2,3.4396738E2,4.9378067E1],"tree_param":{"num_deleted":"0","num_feature":"159340","num_nodes":"29","size_leaf_vector":"1"}},{"base_weights":[2.2866055E-3,3.9425468E-1,-9.470528E-2,4.7482798E-1,-2.7072498E-1,-1.5999782E-1,4.61485E-1,2.954581E-1,8.234282E-1,-0E0,-9.0740424E-1,-8.138858E-2,-5.418908E-1,6.331988E-1,-2.605331E-1,9.514928E-3,3.3683978E-2,-1.9561177E-2,4.3617297E-2,1.0672386E-2,-2.38319E-2,-6.1443806E-2,4.3037245E-3,4.683073E-3,-1.4312416E-2,-4.2513326E-2,-7.409369E-3,4.4262383E-2,1.6558457E-2,-3.0185023E-2,2.2117099E-2],"categories":[],"categories_nodes":[],"categories_segments":[],"categories_sizes":[],"default_left":[0,1,1,0,0,1,1,0,0,1,0,0,0,0,0,0,0,0,0,0,0,0,0,0,0,0,0,0,0,0,0],"id":38,"left_children":[1,3,5,7,9,11,13,15,17,19,21,23,25,27,29,-1,-1,-1,-1,-1,-1,-1,-1,-1,-1,-1,-1,-1,-1,-1,-1],"loss_changes":[2.2028145E2,6.245433E1,1.6844464E2,6.198909E1,2.15465E1,1.23883606E2,6.155017E1,2.5895935E1,2.2674973E1,1.0098002E1,1.3614243E1,1.241748E2,8.41075E1,2.7451584E1,2.464041E1,0E0,0E0,0E0,0E0,0E0,0E0,0E0,0E0,0E0,0E0,0E0,0E0,0E0,0E0,0E0,0E0],"parents":[2147483647,0,0,1,1,2,2,3,3,4,4,5,5,6,6,7,7,8,8,9,9,10,10,11,11,12,12,13,13,14,14],"right_children":[2,4,6,8,10,12,14,16,18,20,22,24,26,28,30,-1,-1,-1,-1,-1,-1,-1,-1,-1,-1,-1,-1,-1,-1,-1,-1],"split_conditions":[1.3532133E0,3.8809527E-3,4.7062617E-4,3.6478E-1,2.3831806E0,2.1911275E-2,4.8584145E-2,1.2579753E-1,2.5515515E-1,1.3344917E-2,8.228722E-3,4.5E-2,7.0306794E-3,3.4507008E1,2.0551689E2,9.514928E-3,3.3683978E-2,-1.9561177E-2,4.3617297E-2,1.0672386E-2,-2.38319E-2,-6.1443806E-2,4.3037245E-3,4.683073E-3,-1.4312416E-2,-4.2513326E-2,-7.409369E-3,4.4262383E-2,1.6558457E-2,-3.0185023E-2,2.2117099E-2],"split_indices":[159330,154611,52609,11,159320,54700,50524,159328,51558,73228,65162,4,54701,159332,159323,0,0,0,0,0,0,0,0,0,0,0,0,0,0,0,0],"split_type":[0,0,0,0,0,0,0,0,0,0,0,0,0,0,0,0,0,0,0,0,0,0,0,0,0,0,0,0,0,0,0],"sum_hessian":[5.7763887E3,1.1448309E3,4.6315576E3,1.02372345E3,1.2110747E2,4.149766E3,4.8179163E2,6.839223E2,3.3980118E2,8.871395E1,3.2393517E1,3.4485889E3,7.0117706E2,3.908402E2,9.09514E1,5.430844E2,1.4083789E2,1.1009113E1,3.2879205E2,6.2877678E1,2.5836271E1,2.4339535E1,8.053985E0,1.858423E3,1.5901659E3,3.885217E2,3.1265533E2,2.0598029E2,1.8485992E2,6.2543682E1,2.8407719E1],"tree_param":{"num_deleted":"0","num_feature":"159340","num_nodes":"31","size_leaf_vector":"1"}},{"base_weights":[-1.4584897E-3,-9.94339E-2,3.391013E-1,7.6874875E-2,-2.938941E-1,2.0226084E-1,6.555684E-1,2.1324638E-1,-2.8941372E-1,-2.3050569E-1,-6.493928E-1,2.894747E-1,-2.8738883E-1,7.132745E-1,-6.335954E-1,1.3399054E-2,-3.31162E-2,-2.6163358E-2,1.8912351E-3,-3.5981808E-3,-1.720438E-2,-3.5716597E-2,1.6407019E-2,1.5860396E-2,-7.877922E-2,2.0472852E-3,-3.1358343E-2,3.7682272E-2,-1.8814867E-2,-0E0,-4.9710322E-2],"categories":[],"categories_nodes":[],"categories_segments":[],"categories_sizes":[],"default_left":[1,0,1,1,1,0,1,1,0,1,1,1,1,1,1,0,0,0,0,0,0,0,0,0,0,0,0,0,0,0,0],"id":39,"left_children":[1,3,5,7,9,11,13,15,17,19,21,23,25,27,29,-1,-1,-1,-1,-1,-1,-1,-1,-1,-1,-1,-1,-1,-1,-1,-1],"loss_changes":[1.9164177E2,1.535206E2,5.4019516E1,1.17353874E2,4.63349E1,3.9056984E1,3.0810837E1,8.260911E1,4.927405E1,3.217057E1,2.1678146E1,4.1183647E1,1.6061977E1,1.8044876E1,5.139245E0,0E0,0E0,0E0,0E0,0E0,0E0,0E0,0E0,0E0,0E0,0E0,0E0,0E0,0E0,0E0,0E0],"parents":[2147483647,0,0,1,1,2,2,3,3,4,4,5,5,6,6,7,7,8,8,9,9,10,10,11,11,12,12,13,13,14,14],"right_children":[2,4,6,8,10,12,14,16,18,20,22,24,26,28,30,-1,-1,-1,-1,-1,-1,-1,-1,-1,-1,-1,-1,-1,-1,-1,-1],"split_conditions":[8.060044E-2,3.7999995E-2,7.7346974E-4,1.7796349E-2,2.167371E-2,2.1354082E1,6.314734E-2,5.7876572E-2,7.0048566E-3,3.7078033E-4,8.195476E-3,4.342158E-3,2.9847302E-2,2.490334E-2,3.6928514E-3,1.3399054E-2,-3.31162E-2,-2.6163358E-2,1.8912351E-3,-3.5981808E-3,-1.720438E-2,-3.5716597E-2,1.6407019E-2,1.5860396E-2,-7.877922E-2,2.0472852E-3,-3.1358343E-2,3.7682272E-2,-1.8814867E-2,-0E0,-4.9710322E-2],"split_indices":[159328,4,60009,54700,54700,7,5692,94190,54701,133721,50193,63987,159032,159309,158567,0,0,0,0,0,0,0,0,0,0,0,0,0,0,0,0],"split_type":[0,0,0,0,0,0,0,0,0,0,0,0,0,0,0,0,0,0,0,0,0,0,0,0,0,0,0,0,0,0,0],"sum_hessian":[5.7406704E3,4.4631475E3,1.2775232E3,2.3397117E3,2.1234358E3,8.998034E2,3.7771982E2,1.7084604E3,6.312512E2,1.8114872E3,3.1194858E2,7.67234E2,1.3256938E2,3.6441693E2,1.3302907E1,1.6122833E3,9.617718E1,3.6819196E2,2.6305923E2,7.631812E2,1.0483059E3,2.9473788E2,1.72107E1,7.606096E2,6.6243944E0,6.815966E1,6.440973E1,3.537684E2,1.0648516E1,5.6701317E0,7.6327753E0],"tree_param":{"num_deleted":"0","num_feature":"159340","num_nodes":"31","size_leaf_vector":"1"}},{"base_weights":[7.2294627E-3,1.757416E-1,-1.8897213E-1,2.8194004E-1,-1.6855039E-1,7.9771705E-2,-3.304099E-1,3.6900204E-1,-1.05198115E-1,7.616875E-2,-3.605968E-1,-2.5181022E-1,4.1667506E-1,-1.8802401E-1,-7.315982E-1,2.3573888E-2,-3.0407682E-3,-3.9488073E-2,8.246472E-3,-1.6269183E-2,1.1468462E-2,-7.5049326E-3,-3.0104205E-2,-1.6693057E-2,1.4601387E-2,3.38819E-2,8.859704E-3,-4.53666E-3,-2.8770953E-2,2.0071492E-3,-3.9340362E-2],"categories":[],"categories_nodes":[],"categories_segments":[],"categories_sizes":[],"default_left":[0,0,0,1,1,0,1,1,0,1,1,1,0,1,0,0,0,0,0,0,0,0,0,0,0,0,0,0,0,0,0],"id":40,"left_children":[1,3,5,7,9,11,13,15,17,19,21,23,25,27,29,-1,-1,-1,-1,-1,-1,-1,-1,-1,-1,-1,-1,-1,-1,-1,-1],"loss_changes":[1.9022011E2,1.1362165E2,1.013315E2,8.039676E1,3.4787014E1,1.0316899E2,9.7984985E1,8.598071E1,8.21273E1,2.0169306E1,1.978275E1,2.1232012E1,2.7193367E1,4.789406E1,2.0210678E1,0E0,0E0,0E0,0E0,0E0,0E0,0E0,0E0,0E0,0E0,0E0,0E0,0E0,0E0,0E0,0E0],"parents":[2147483647,0,0,1,1,2,2,3,3,4,4,5,5,6,6,7,7,8,8,9,9,10,10,11,11,12,12,13,13,14,14],"right_children":[2,4,6,8,10,12,14,16,18,20,22,24,26,28,30,-1,-1,-1,-1,-1,-1,-1,-1,-1,-1,-1,-1,-1,-1,-1,-1],"split_conditions":[1.3777999E0,2.778309E1,1.6895E1,1.0934989E-3,5.8115995E-4,8.229443E-2,4.4958465E-2,2.608519E-2,2.0290338E-1,1.8483214E-3,1.1E-2,9.631171E1,1.5481057E1,2.3E-2,3.36111E-1,2.3573888E-2,-3.0407682E-3,-3.9488073E-2,8.246472E-3,-1.6269183E-2,1.1468462E-2,-7.5049326E-3,-3.0104205E-2,-1.6693057E-2,1.4601387E-2,3.38819E-2,8.859704E-3,-4.53666E-3,-2.8770953E-2,2.0071492E-3,-3.9340362E-2],"split_indices":[159330,159329,159329,122613,76893,159331,50192,51746,159331,151244,26,3,159329,26,11,0,0,0,0,0,0,0,0,0,0,0,0,0,0,0,0],"split_type":[0,0,0,0,0,0,0,0,0,0,0,0,0,0,0,0,0,0,0,0,0,0,0,0,0,0,0,0,0,0,0],"sum_hessian":[5.7437534E3,3.092935E3,2.6508184E3,2.3667195E3,7.262155E2,9.123622E2,1.7384563E3,1.9344956E3,4.3222388E2,3.1835492E2,4.078606E2,4.58953E2,4.5340915E2,1.2903379E3,4.481184E2,1.563559E3,3.7093674E2,1.2062271E2,3.116012E2,8.4562355E1,2.3379257E2,2.2445654E2,1.8340405E2,4.020617E2,5.689129E1,2.1059721E2,2.4281195E2,1.0383243E3,2.520135E2,2.8799229E1,4.1931915E2],"tree_param":{"num_deleted":"0","num_feature":"159340","num_nodes":"31","size_leaf_vector":"1"}},{"base_weights":[-1.3472408E-4,5.8505096E-2,-4.6005014E-1,-2.1515399E-1,1.4408292E-1,-2.9990432E-1,-7.375067E-1,-2.6640496E-1,4.6392283E-1,4.1973427E-1,3.9290458E-2,-7.4541025E-2,-6.497991E-1,-2.3739366E-1,-9.178464E-1,-3.018215E-3,-2.2621172E-2,4.358272E-2,-5.186686E-3,2.4658307E-2,-8.794236E-3,1.6587703E-2,-4.5694094E-3,5.580947E-3,-2.8123641E-2,-3.888356E-2,-0E0,6.3390913E-3,-3.313363E-2,-4.8186224E-2,1.9970281E-2],"categories":[],"categories_nodes":[],"categories_segments":[],"categories_sizes":[],"default_left":[1,0,1,0,0,1,1,1,0,1,0,0,0,1,1,0,0,0,0,0,0,0,0,0,0,0,0,0,0,0,0],"id":41,"left_children":[1,3,5,7,9,11,13,15,17,19,21,23,25,27,29,-1,-1,-1,-1,-1,-1,-1,-1,-1,-1,-1,-1,-1,-1,-1,-1],"loss_changes":[1.5572629E2,1.196646E2,2.6880997E1,4.27275E1,1.119847E2,3.2535988E1,1.8800064E1,4.2846252E1,2.10693E1,4.7544052E1,1.0857544E2,2.4909134E1,1.425499E1,1.1805841E1,1.2658722E1,0E0,0E0,0E0,0E0,0E0,0E0,0E0,0E0,0E0,0E0,0E0,0E0,0E0,0E0,0E0,0E0],"parents":[2147483647,0,0,1,1,2,2,3,3,4,4,5,5,6,6,7,7,8,8,9,9,10,10,11,11,12,12,13,13,14,14],"right_children":[2,4,6,8,10,12,14,16,18,20,22,24,26,28,30,-1,-1,-1,-1,-1,-1,-1,-1,-1,-1,-1,-1,-1,-1,-1,-1],"split_conditions":[2.5617354E-2,9.666366E-2,3.156495E-2,1.7602344E2,7.0167046E1,4.4958465E-2,5.291831E-4,2.8846227E-4,3.9400005E-1,4.8049774E-2,1.562529E-2,2.4903898E0,8.356876E-2,3.3454742E-2,6.823485E-2,-3.018215E-3,-2.2621172E-2,4.358272E-2,-5.186686E-3,2.4658307E-2,-8.794236E-3,1.6587703E-2,-4.5694094E-3,5.580947E-3,-2.8123641E-2,-3.888356E-2,-0E0,6.3390913E-3,-3.313363E-2,-4.8186224E-2,1.9970281E-2],"split_indices":[52576,159331,50148,159321,159321,50192,91174,133976,6,52608,54700,159326,154110,52454,26352,0,0,0,0,0,0,0,0,0,0,0,0,0,0,0,0],"split_type":[0,0,0,0,0,0,0,0,0,0,0,0,0,0,0,0,0,0,0,0,0,0,0,0,0,0,0,0,0,0,0],"sum_hessian":[5.7493145E3,5.1011064E3,6.482081E2,1.2106041E3,3.8905022E3,4.1987067E2,2.2833746E2,1.1298442E3,8.075997E1,1.0648632E3,2.8256392E3,2.6080945E2,1.5906123E2,6.5055176E1,1.6328229E2,5.417647E2,5.8807947E2,4.646759E1,3.429238E1,9.502491E2,1.1461406E2,8.7262695E2,1.9530122E3,1.90091E2,7.071843E1,1.3311478E2,2.5946459E1,3.5669037E1,2.9386137E1,1.5981714E2,3.4651427E0],"tree_param":{"num_deleted":"0","num_feature":"159340","num_nodes":"31","size_leaf_vector":"1"}},{"base_weights":[1.5588735E-3,1.4202532E-1,-1.9717722E-1,2.2253911E-1,-2.3736134E-1,-2.603137E-2,-3.638369E-1,2.6608336E-1,-3.8328594E-1,-2.901915E-1,7.211023E-1,1.05894044E-1,-4.3081522E-1,-4.3735313E-1,-3.37411E-2,9.9704405E-3,3.3213824E-2,-2.7648693E-2,1.8104991E-2,-1.1764923E-2,-4.8309095E-2,4.36372E-2,-6.192897E-3,1.333932E-2,-9.558321E-3,-3.365287E-2,-9.117588E-3,4.0188055E-2,-2.270549E-2,1.1329477E-2,-1.4336549E-2],"categories":[],"categories_nodes":[],"categories_segments":[],"categories_sizes":[],"default_left":[0,1,0,1,0,1,0,1,0,1,1,0,0,0,1,0,0,0,0,0,0,0,0,0,0,0,0,0,0,0,0],"id":42,"left_children":[1,3,5,7,9,11,13,15,17,19,21,23,25,27,29,-1,-1,-1,-1,-1,-1,-1,-1,-1,-1,-1,-1,-1,-1,-1,-1],"loss_changes":[1.5919678E2,1.0243356E2,6.686143E1,7.331758E1,3.028263E1,6.3160698E1,2.838292E1,6.70643E1,2.470239E1,1.8435966E1,5.2682514E0,4.2694443E1,1.604758E1,2.1690414E1,1.5205118E1,0E0,0E0,0E0,0E0,0E0,0E0,0E0,0E0,0E0,0E0,0E0,0E0,0E0,0E0,0E0,0E0],"parents":[2147483647,0,0,1,1,2,2,3,3,4,4,5,5,6,6,7,7,8,8,9,9,10,10,11,11,12,12,13,13,14,14],"right_children":[2,4,6,8,10,12,14,16,18,20,22,24,26,28,30,-1,-1,-1,-1,-1,-1,-1,-1,-1,-1,-1,-1,-1,-1,-1,-1],"split_conditions":[1.3804723E0,2.7735617E-2,3.0000009E-2,4.6175227E-2,1.2579753E-1,2.0061791E-2,5.32E-4,2.3166E-2,5.511514E-2,3.8758554E-2,4.5175714E-4,2.9000003E-2,6.5541617E-3,4.894327E-1,7.3234253E-3,9.9704405E-3,3.3213824E-2,-2.7648693E-2,1.8104991E-2,-1.1764923E-2,-4.8309095E-2,4.36372E-2,-6.192897E-3,1.333932E-2,-9.558321E-3,-3.365287E-2,-9.117588E-3,4.0188055E-2,-2.270549E-2,1.1329477E-2,-1.4336549E-2],"split_indices":[159330,27312,4,52454,159328,54700,59,5,24398,77962,134115,62,54701,39920,35804,0,0,0,0,0,0,0,0,0,0,0,0,0,0,0,0],"split_type":[0,0,0,0,0,0,0,0,0,0,0,0,0,0,0,0,0,0,0,0,0,0,0,0,0,0,0,0,0,0,0],"sum_hessian":[5.694718E3,3.3402742E3,2.3544434E3,2.7593792E3,5.80895E2,1.1674003E3,1.1870432E3,2.5785015E3,1.8087766E2,5.5484186E2,2.605318E1,8.8136957E2,2.8603067E2,9.67022E2,2.2002121E2,2.2172537E3,3.6124777E2,1.4948051E2,3.1397142E1,5.2077277E2,3.4069073E1,2.2952976E1,3.1002035E0,5.7423254E2,3.0713702E2,1.3846426E2,1.4756642E2,8.958828E0,9.580631E2,1.0674645E2,1.13274765E2],"tree_param":{"num_deleted":"0","num_feature":"159340","num_nodes":"31","size_leaf_vector":"1"}},{"base_weights":[-8.557424E-3,3.2733735E-1,-9.2659704E-2,2.0605324E-1,6.693835E-1,-2.5918286E-2,-4.468877E-1,2.8833944E-1,-3.3681414E-1,7.2491896E-1,-3.525619E-1,2.570081E-1,-1.4038087E-1,-5.324606E-1,4.0240628E-1,2.9528966E-2,4.692241E-3,-3.117272E-2,1.6023861E-2,-1.8374782E-2,3.9012127E-2,1.4039183E-2,